Language model created by QuickLM on Wed Nov 24 00:58:25 EST 2021
Copyright (c) 1996-2010 Carnegie Mellon University and Alexander I. Rudnicky

The model is in standard ARPA format, designed by Doug Paul while he was at MITRE.

The code that was used to produce this language model is available in Open Source.
Please visit http://www.speech.cs.cmu.edu/tools/ for more information

The (fixed) discount mass is 0.5. The backoffs are computed using the ratio method.
This model based on a corpus of 895 sentences and 894 words

\data\
ngram 1=894
ngram 2=1784
ngram 3=892

\1-grams:
-0.7782 </s> -0.3010
-0.7782 <s> -0.2218
-3.7300 一下子 -0.2218
-3.7300 一个巴掌拍不响 -0.2218
-3.7300 一子 -0.2218
-3.7300 一家子 -0.2218
-3.7300 一抿子 -0.2218
-3.7300 一拍两散 -0.2218
-3.7300 一拍即合 -0.2218
-3.7300 一揽子 -0.2218
-3.7300 一甲子 -0.2218
-3.7300 一肚子 -0.2218
-3.7300 一股子 -0.2218
-3.7300 一辈子 -0.2218
-3.7300 一锤子买卖 -0.2218
-3.7300 一阵子 -0.2218
-3.7300 一面镜子 -0.2218
-3.7300 丁子高 -0.2218
-3.7300 七子 -0.2218
-3.7300 三子 -0.2218
-3.7300 上拍 -0.2218
-3.7300 上辈子 -0.2218
-3.7300 上馆子 -0.2218
-3.7300 下子 -0.2218
-3.7300 下辈子 -0.2218
-3.7300 下馆子 -0.2218
-3.7300 不入虎穴焉得虎子 -0.2218
-3.7300 不成样子 -0.2218
-3.7300 不法分子 -0.2218
-3.7300 不见兔子不撒鹰 -0.2218
-3.7300 世子 -0.2218
-3.7300 丙子 -0.2218
-3.7300 东一榔头西一棒子 -0.2218
-3.7300 东坡肘子 -0.2218
-3.7300 东洋鬼子 -0.2218
-3.7300 丢面子 -0.2218
-3.7300 两下子 -0.2218
-3.7300 两口子 -0.2218
-3.7300 两子 -0.2218
-3.7300 两把刷子 -0.2218
-3.7300 个子 -0.2218
-3.7300 丫头片子 -0.2218
-3.7300 中英文对照 -0.2218
-3.7300 丸子 -0.2218
-3.7300 主子 -0.2218
-3.7300 义子 -0.2218
-3.7300 乏人照顾 -0.2218
-3.7300 乐子 -0.2218
-3.7300 乒乓球拍 -0.2218
-3.7300 九子 -0.2218
-3.7300 书呆子 -0.2218
-3.7300 买面子 -0.2218
-3.7300 乱臣贼子 -0.2218
-3.7300 予以照顾 -0.2218
-3.7300 争面子 -0.2218
-3.7300 事故照射 -0.2218
-3.7300 二子 -0.2218
-3.7300 二尕子 -0.2218
-3.7300 二愣子 -0.2218
-3.7300 二杆子 -0.2218
-3.7300 二毛子 -0.2218
-3.7300 二流子 -0.2218
-3.7300 二鬼子 -0.2218
-3.7300 五味子 -0.2218
-3.7300 五子棋 -0.2218
-3.7300 亚原子 -0.2218
-3.7300 京片子 -0.2218
-3.7300 亭子 -0.2218
-3.7300 亲子 -0.2218
-3.7300 亲子鉴定 -0.2218
-3.7300 亲生子女 -0.2218
-3.7300 人工照亮 -0.2218
-3.7300 仁人君子 -0.2218
-3.7300 仙子 -0.2218
-3.7300 以子之矛攻子之盾 -0.2218
-3.7300 以小人之心度君子之腹 -0.2218
-3.7300 份子钱 -0.2218
-3.7300 仿射子空间 -0.2218
-3.7300 仿照 -0.2218
-3.7300 伍子胥 -0.2218
-3.7300 会子 -0.2218
-3.7300 伢子 -0.2218
-3.7300 伪君子 -0.2218
-3.7300 位子 -0.2218
-3.7300 佛子 -0.2218
-3.7300 佳人才子 -0.2218
-3.7300 侄子 -0.2218
-3.7300 侉子 -0.2218
-3.7300 例子 -0.2218
-3.7300 依照 -0.2218
-3.7300 借腹生子 -0.2218
-3.7300 假嗓子 -0.2218
-3.7300 假小子 -0.2218
-3.7300 偷拍 -0.2218
-3.7300 偷汉子 -0.2218
-3.7300 傻子 -0.2218
-3.7300 儿子 -0.2218
-3.7300 兆电子伏 -0.2218
-3.7300 光子 -0.2218
-3.7300 光照 -0.2218
-3.7300 光照度 -0.2218
-3.7300 光电子 -0.2218
-3.7300 光膀子 -0.2218
-3.7300 克丝钳子 -0.2218
-3.7300 兔子 -0.2218
-3.7300 兔子不吃窝边草 -0.2218
-3.7300 兔崽子 -0.2218
-3.7300 兔羔子 -0.2218
-3.7300 兜圈子 -0.2218
-3.7300 八旗子弟 -0.2218
-3.7300 八辈子 -0.2218
-3.7300 公因子 -0.2218
-3.7300 公子 -0.2218
-3.7300 公子哥儿 -0.2218
-3.7300 关照 -0.2218
-3.7300 关门弟子 -0.2218
-3.7300 养子 -0.2218
-3.7300 册子 -0.2218
-3.7300 写照 -0.2218
-3.7300 凡夫俗子 -0.2218
-3.7300 凭照 -0.2218
-3.7300 凯子 -0.2218
-3.7300 凳子 -0.2218
-3.7300 出乱子 -0.2218
-3.7300 出份子 -0.2218
-3.7300 分子 -0.2218
-3.7300 划子 -0.2218
-3.7300 列子 -0.2218
-3.7300 刘涓子 -0.2218
-3.7300 创牌子 -0.2218
-3.7300 刨子 -0.2218
-3.7300 别子 -0.2218
-3.7300 刮胡子 -0.2218
-3.7300 刷子 -0.2218
-3.7300 刽子手 -0.2218
-3.7300 剂子 -0.2218
-3.7300 剧照 -0.2218
-3.7300 剪子 -0.2218
-3.7300 动嘴皮子 -0.2218
-3.7300 势子 -0.2218
-3.7300 勒脖子 -0.2218
-3.7300 勺子 -0.2218
-3.7300 包子 -0.2218
-3.7300 包饺子 -0.2218
-3.7300 化子 -0.2218
-3.7300 匣子 -0.2218
-3.7300 半吊子 -0.2218
-3.7300 半拉子 -0.2218
-3.7300 半瓶子醋 -0.2218
-3.7300 半辈子 -0.2218
-3.7300 单色照片 -0.2218
-3.7300 卖关子 -0.2218
-3.7300 卖面子 -0.2218
-3.7300 卡脖子 -0.2218
-3.7300 卵子 -0.2218
-3.7300 卷子 -0.2218
-3.7300 厂子 -0.2218
-3.7300 原子弹 -0.2218
-3.7300 厨子 -0.2218
-3.7300 参照 -0.2218
-3.7300 叉子 -0.2218
-3.7300 双子座 -0.2218
-3.7300 叔子 -0.2218
-3.7300 口子 -0.2218
-3.7300 句子 -0.2218
-3.7300 叫花子 -0.2218
-3.7300 可疑分子 -0.2218
-3.7300 右派分子 -0.2218
-3.7300 吃熊心豹子胆 -0.2218
-3.7300 合拍 -0.2218
-3.7300 合照 -0.2218
-3.7300 名子 -0.2218
-3.7300 后照镜 -0.2218
-3.7300 君子 -0.2218
-3.7300 君子一言驷马难追 -0.2218
-3.7300 君子不计小人过 -0.2218
-3.7300 君子之交淡如水 -0.2218
-3.7300 君子动口不动手 -0.2218
-3.7300 君子坦荡荡小人长戚戚 -0.2218
-3.7300 君子报仇十年不晚 -0.2218
-3.7300 吹吹拍拍 -0.2218
-3.7300 吹拍 -0.2218
-3.7300 吹牛拍马 -0.2218
-3.7300 吹胡子瞪眼 -0.2218
-3.7300 呆子 -0.2218
-3.7300 命根子 -0.2218
-3.7300 哀子 -0.2218
-3.7300 哈喇子 -0.2218
-3.7300 哭鼻子 -0.2218
-3.7300 嗓子 -0.2218
-3.7300 嗣子 -0.2218
-3.7300 嘴巴子 -0.2218
-3.7300 嘴皮子 -0.2218
-3.7300 回光返照 -0.2218
-3.7300 因子 -0.2218
-3.7300 园子 -0.2218
-3.7300 国拍 -0.2218
-3.7300 圈子 -0.2218
-3.7300 土包子 -0.2218
-3.7300 圣子 -0.2218
-3.7300 圣德太子 -0.2218
-3.7300 地照 -0.2218
-3.7300 场子 -0.2218
-3.7300 均日照 -0.2218
-3.7300 坏肠子 -0.2218
-3.7300 坐月子 -0.2218
-3.7300 坛子 -0.2218
-3.7300 垫子 -0.2218
-3.7300 墨子 -0.2218
-3.7300 士子 -0.2218
-3.7300 壮起胆子 -0.2218
-3.7300 处子秀 -0.2218
-3.7300 夕照 -0.2218
-3.7300 外照射 -0.2218
-3.7300 多子多福 -0.2218
-3.7300 夜猫子 -0.2218
-3.7300 大伯子 -0.2218
-3.7300 大头照 -0.2218
-3.7300 大姨子 -0.2218
-3.7300 大男子主义 -0.2218
-3.7300 大肚子 -0.2218
-3.7300 大舅子 -0.2218
-3.7300 天子 -0.2218
-3.7300 天然照亮 -0.2218
-3.7300 太子 -0.2218
-3.7300 夫子 -0.2218
-3.7300 失面子 -0.2218
-3.7300 头发胡子一把抓 -0.2218
-3.7300 夹子 -0.2218
-3.7300 奉子成婚 -0.2218
-3.7300 女子 -0.2218
-3.7300 女子无才便是德 -0.2218
-3.7300 女孩子 -0.2218
-3.7300 女汉子 -0.2218
-3.7300 奶子 -0.2218
-3.7300 妃子 -0.2218
-3.7300 妃子笑 -0.2218
-3.7300 妹子 -0.2218
-3.7300 妻子 -0.2218
-3.7300 妻离子散 -0.2218
-3.7300 姑子 -0.2218
-3.7300 姜子牙 -0.2218
-3.7300 娃子 -0.2218
-3.7300 娄子 -0.2218
-3.7300 娘子 -0.2218
-3.7300 婆子 -0.2218
-3.7300 婊子 -0.2218
-3.7300 婚照 -0.2218
-3.7300 婶子 -0.2218
-3.7300 嫂子 -0.2218
-3.7300 嫡子 -0.2218
-3.7300 子 -0.2218
-3.7300 子不嫌母丑狗不嫌家贫 -0.2218
-3.7300 子丑 -0.2218
-3.7300 子之 -0.2218
-3.7300 子产 -0.2218
-3.7300 子京 -0.2218
-3.7300 子亮 -0.2218
-3.7300 子仁 -0.2218
-3.7300 子代 -0.2218
-3.7300 子保 -0.2218
-3.7300 子儿 -0.2218
-3.7300 子公司 -0.2218
-3.7300 子刚 -0.2218
-3.7300 子化 -0.2218
-3.7300 子午线 -0.2218
-3.7300 子南 -0.2218
-3.7300 子双 -0.2218
-3.7300 子句 -0.2218
-3.7300 子叶 -0.2218
-3.7300 子嗣 -0.2218
-3.7300 子坚 -0.2218
-3.7300 子域 -0.2218
-3.7300 子夜 -0.2218
-3.7300 子头 -0.2218
-3.7300 子女 -0.2218
-3.7300 子如 -0.2218
-3.7300 子子孙孙 -0.2218
-3.7300 子孙 -0.2218
-3.7300 子孝父慈 -0.2218
-3.7300 子学 -0.2218
-3.7300 子实 -0.2218
-3.7300 子宫 -0.2218
-3.7300 子层 -0.2218
-3.7300 子崖 -0.2218
-3.7300 子帅 -0.2218
-3.7300 子帆 -0.2218
-3.7300 子干 -0.2218
-3.7300 子建 -0.2218
-3.7300 子弟 -0.2218
-3.7300 子弟兵 -0.2218
-3.7300 子弹 -0.2218
-3.7300 子强 -0.2218
-3.7300 子心 -0.2218
-3.7300 子怡 -0.2218
-3.7300 子房 -0.2218
-3.7300 子才 -0.2218
-3.7300 子扬 -0.2218
-3.7300 子日 -0.2218
-3.7300 子时 -0.2218
-3.7300 子昂 -0.2218
-3.7300 子晨 -0.2218
-3.7300 子晴 -0.2218
-3.7300 子曰 -0.2218
-3.7300 子本 -0.2218
-3.7300 子树 -0.2218
-3.7300 子模型 -0.2218
-3.7300 子歌 -0.2218
-3.7300 子正 -0.2218
-3.7300 子民 -0.2218
-3.7300 子河 -0.2218
-3.7300 子洋 -0.2218
-3.7300 子洪 -0.2218
-3.7300 子洲 -0.2218
-3.7300 子涵 -0.2218
-3.7300 子淇 -0.2218
-3.7300 子游 -0.2218
-3.7300 子瀚 -0.2218
-3.7300 子爱 -0.2218
-3.7300 子爵 -0.2218
-3.7300 子猪 -0.2218
-3.7300 子玉 -0.2218
-3.7300 子珊 -0.2218
-3.7300 子球 -0.2218
-3.7300 子癫前症 -0.2218
-3.7300 子目 -0.2218
-3.7300 子目录 -0.2218
-3.7300 子真 -0.2218
-3.7300 子科 -0.2218
-3.7300 子程序 -0.2218
-3.7300 子空间 -0.2218
-3.7300 子章 -0.2218
-3.7300 子粒 -0.2218
-3.7300 子精 -0.2218
-3.7300 子系统 -0.2218
-3.7300 子细 -0.2218
-3.7300 子细胞 -0.2218
-3.7300 子美 -0.2218
-3.7300 子群 -0.2218
-3.7300 子能 -0.2218
-3.7300 子范 -0.2218
-3.7300 子菜 -0.2218
-3.7300 子萌 -0.2218
-3.7300 子虚 -0.2218
-3.7300 子行 -0.2218
-3.7300 子规 -0.2218
-3.7300 子豪 -0.2218
-3.7300 子贡 -0.2218
-3.7300 子路 -0.2218
-3.7300 子进 -0.2218
-3.7300 子里 -0.2218
-3.7300 子鉴 -0.2218
-3.7300 子镇 -0.2218
-3.7300 子集 -0.2218
-3.7300 子集合 -0.2218
-3.7300 子音 -0.2218
-3.7300 子飞 -0.2218
-3.7300 子鼠 -0.2218
-3.7300 孔夫子 -0.2218
-3.7300 孔子 -0.2218
-3.7300 字纸篓子 -0.2218
-3.7300 孙子 -0.2218
-3.7300 孙子兵法 -0.2218
-3.7300 孝子 -0.2218
-3.7300 孟子 -0.2218
-3.7300 孢子 -0.2218
-3.7300 季子 -0.2218
-3.7300 孤哀子 -0.2218
-3.7300 孤子 -0.2218
-3.7300 孤立子 -0.2218
-3.7300 学子 -0.2218
-3.7300 孩子 -0.2218
-3.7300 孩子们 -0.2218
-3.7300 孩子气 -0.2218
-3.7300 孽子 -0.2218
-3.7300 宅子 -0.2218
-3.7300 官子 -0.2218
-3.7300 官架子 -0.2218
-3.7300 定子 -0.2218
-3.7300 定调子 -0.2218
-3.7300 实拍 -0.2218
-3.7300 家子 -0.2218
-3.7300 寄子 -0.2218
-3.7300 密码子 -0.2218
-3.7300 寨子 -0.2218
-3.7300 对照 -0.2218
-3.7300 对照实验 -0.2218
-3.7300 对照表 -0.2218
-3.7300 小伙子 -0.2218
-3.7300 小册子 -0.2218
-3.7300 小姑子 -0.2218
-3.7300 小姨子 -0.2218
-3.7300 小子 -0.2218
-3.7300 小孩子 -0.2218
-3.7300 小家子气 -0.2218
-3.7300 小房子 -0.2218
-3.7300 小日子 -0.2218
-3.7300 小段子 -0.2218
-3.7300 小碟子 -0.2218
-3.7300 小胖子 -0.2218
-3.7300 小舅子 -0.2218
-3.7300 小辫子 -0.2218
-3.7300 小铲子 -0.2218
-3.7300 尖子生 -0.2218
-3.7300 尺子 -0.2218
-3.7300 屋子 -0.2218
-3.7300 屯子 -0.2218
-3.7300 岔子 -0.2218
-3.7300 左嗓子 -0.2218
-3.7300 左撇子 -0.2218
-3.7300 巷子 -0.2218
-3.7300 帐子 -0.2218
-3.7300 帕子 -0.2218
-3.7300 帖子 -0.2218
-3.7300 帘子 -0.2218
-3.7300 带子 -0.2218
-3.7300 席子 -0.2218
-3.7300 帮子 -0.2218
-3.7300 帽子 -0.2218
-3.7300 帽子戏法 -0.2218
-3.7300 幌子 -0.2218
-3.7300 幔子 -0.2218
-3.7300 干儿子 -0.2218
-3.7300 年均日照 -0.2218
-3.7300 庄子 -0.2218
-3.7300 应急照射 -0.2218
-3.7300 底子 -0.2218
-3.7300 庶子 -0.2218
-3.7300 开口子 -0.2218
-3.7300 开拍 -0.2218
-3.7300 式子 -0.2218
-3.7300 引子 -0.2218
-3.7300 弟子 -0.2218
-3.7300 弯子 -0.2218
-3.7300 弹子 -0.2218
-3.7300 强子 -0.2218
-3.7300 彬彬君子 -0.2218
-3.7300 影子 -0.2218
-3.7300 心照 -0.2218
-3.7300 心照不宣 -0.2218
-3.7300 快照 -0.2218
-3.7300 急性子 -0.2218
-3.7300 急性照射 -0.2218
-3.7300 急拍拍 -0.2218
-3.7300 恐怖份子 -0.2218
-3.7300 慈照寺 -0.2218
-3.7300 慢性子 -0.2218
-3.7300 戏子 -0.2218
-3.7300 成样子 -0.2218
-3.7300 房子 -0.2218
-3.7300 扇子 -0.2218
-3.7300 才子 -0.2218
-3.7300 才子佳人 -0.2218
-3.7300 打开话匣子 -0.2218
-3.7300 打拍 -0.2218
-3.4289 打拍子 -0.2218
-3.7300 打肿脸充胖子 -0.2218
-3.7300 扛把子 -0.2218
-3.7300 扣子 -0.2218
-3.7300 执照 -0.2218
-3.7300 扯嗓子 -0.2218
-3.7300 扯犊子 -0.2218
-3.7300 扳子 -0.2218
-3.7300 承蒙关照 -0.2218
-3.7300 抄靶子 -0.2218
-3.7300 抓小辫子 -0.2218
-3.7300 抓拍 -0.2218
-3.7300 投拍 -0.2218
-3.7300 护照 -0.2218
-3.7300 护犊子 -0.2218
-3.7300 抬轿子 -0.2218
-3.7300 抹一鼻子灰 -0.2218
-3.7300 担子 -0.2218
-3.7300 拉场子 -0.2218
-3.7300 拉肚子 -0.2218
-3.7300 拍 -0.2218
-3.7300 拍出 -0.2218
-3.7300 拍击 -0.2218
-3.7300 拍剧 -0.2218
-3.7300 拍卖 -0.2218
-3.7300 拍卖会 -0.2218
-3.7300 拍卖商 -0.2218
-3.7300 拍发 -0.2218
-3.7300 拍号 -0.2218
-3.7300 拍婆子 -0.2218
-3.4289 拍子 -0.2218
-3.7300 拍岸 -0.2218
-3.7300 拍戏 -0.2218
-3.7300 拍手 -0.2218
-3.7300 拍打 -0.2218
-3.7300 拍拍 -0.2218
-3.7300 拍拍屁股走人 -0.2218
-3.7300 拍拖 -0.2218
-3.7300 拍摄 -0.2218
-3.7300 拍板 -0.2218
-3.7300 拍案 -0.2218
-3.7300 拍案叫绝 -0.2218
-3.7300 拍案惊奇 -0.2218
-3.7300 拍案而起 -0.2218
-3.7300 拍档 -0.2218
-3.7300 拍演 -0.2218
-3.7300 拍照 -0.2218
-3.7300 拍片 -0.2218
-3.7300 拍电 -0.2218
-3.7300 拍电影 -0.2218
-3.7300 拍立得 -0.2218
-3.7300 拍纸簿 -0.2218
-3.7300 拍胸脯 -0.2218
-3.7300 拍马 -0.2218
-3.7300 拍马屁 -0.2218
-3.7300 拍马者 -0.2218
-3.7300 拐子 -0.2218
-3.7300 拔罐子 -0.2218
-3.7300 拜把子 -0.2218
-3.7300 择日子 -0.2218
-3.7300 按照 -0.2218
-3.7300 按照字面 -0.2218
-3.7300 按照法律 -0.2218
-3.7300 按照计划 -0.2218
-3.7300 捶子 -0.2218
-3.7300 掉链子 -0.2218
-3.7300 掐脖子 -0.2218
-3.7300 探子 -0.2218
-3.7300 探照灯 -0.2218
-3.7300 探身子 -0.2218
-3.7300 接拍 -0.2218
-3.7300 推子 -0.2218
-3.7300 掸子 -0.2218
-3.7300 提子 -0.2218
-3.7300 揪辫子 -0.2218
-3.7300 摊子 -0.2218
-3.7300 摘帽子 -0.2218
-3.7300 撒丫子 -0.2218
-3.7300 放鸽子 -0.2218
-3.7300 故家子弟 -0.2218
-3.7300 敌特分子 -0.2218
-3.7300 教子 -0.2218
-3.7300 数码照相机 -0.2218
-3.7300 斧子 -0.2218
-3.7300 新娘子 -0.2218
-3.7300 新照 -0.2218
-3.7300 无照经营 -0.2218
-3.7300 日照 -0.2218
-3.7300 早生贵子 -0.2218
-3.7300 旱鸭子 -0.2218
-3.7300 星照 -0.2218
-3.7300 映照 -0.2218
-3.7300 普照 -0.2218
-3.7300 曲子 -0.2218
-3.7300 最大公因子 -0.2218
-3.7300 月子 -0.2218
-3.7300 有两下子 -0.2218
-3.7300 有机分子 -0.2218
-3.7300 朗照 -0.2218
-3.7300 望子成龙 -0.2218
-3.7300 木子 -0.2218
-3.7300 李清照 -0.2218
-3.7300 村子 -0.2218
-3.7300 杓子 -0.2218
-3.7300 杠子 -0.2218
-3.7300 条子 -0.2218
-3.7300 杯子 -0.2218
-3.7300 松子 -0.2218
-3.7300 板子 -0.2218
-3.7300 林子聪 -0.2218
-3.7300 枚子 -0.2218
-3.7300 枝子 -0.2218
-3.7300 枣子 -0.2218
-3.7300 枪杆子 -0.2218
-3.7300 架子 -0.2218
-3.7300 枸杞子 -0.2218
-3.7300 柚子 -0.2218
-3.7300 柜子 -0.2218
-3.7300 柱子 -0.2218
-3.7300 柳子戏 -0.2218
-3.7300 柿子 -0.2218
-3.7300 栀子 -0.2218
-3.7300 栀子花 -0.2218
-3.7300 栅子 -0.2218
-3.7300 栗子 -0.2218
-3.7300 样子 -0.2218
-3.7300 核子 -0.2218
-3.7300 格子 -0.2218
-3.7300 栽子 -0.2218
-3.7300 桃子 -0.2218
-3.7300 框子 -0.2218
-3.7300 案子 -0.2218
-3.7300 桌子 -0.2218
-3.7300 桔子 -0.2218
-3.7300 档子 -0.2218
-3.7300 桩子 -0.2218
-3.7300 梁上君子 -0.2218
-3.7300 梁子 -0.2218
-3.7300 梅子 -0.2218
-3.7300 梨园子弟 -0.2218
-3.7300 梨子 -0.2218
-3.7300 梭子 -0.2218
-3.7300 梯子 -0.2218
-3.7300 梳子 -0.2218
-3.7300 棋子 -0.2218
-3.7300 棍子 -0.2218
-3.7300 棒子 -0.2218
-3.7300 棚子 -0.2218
-3.7300 椅子 -0.2218
-3.7300 椰子 -0.2218
-3.7300 模子 -0.2218
-3.7300 樱桃小番茄 -0.2218
-3.7300 樵子 -0.2218
-3.7300 橘子 -0.2218
-3.7300 橙子 -0.2218
-3.7300 橱子 -0.2218
-3.7300 次子 -0.2218
-3.7300 欧米茄 -0.2218
-3.7300 欧米茄表公司 -0.2218
-3.7300 正人君子 -0.2218
-3.7300 正离子 -0.2218
-3.7300 步子 -0.2218
-3.7300 武装分子 -0.2218
-3.7300 歪点子 -0.2218
-3.7300 死要面子 -0.2218
-3.7300 段子 -0.2218
-3.7300 母子 -0.2218
-3.7300 比照 -0.2218
-3.7300 毛孩子 -0.2218
-3.7300 毡子 -0.2218
-3.7300 毯子 -0.2218
-3.7300 求子 -0.2218
-3.7300 汉子 -0.2218
-3.7300 江湖骗子 -0.2218
-3.7300 洋鬼子 -0.2218
-3.7300 洗照片 -0.2218
-3.7300 活跃分子 -0.2218
-3.7300 活靶子 -0.2218
-3.7300 浪子 -0.2218
-3.7300 海外赤子 -0.2218
-3.7300 海瓜子 -0.2218
-3.7300 海蛎子 -0.2218
-3.7300 涮锅子 -0.2218
-3.7300 淑人君子 -0.2218
-3.7300 混日子 -0.2218
-3.7300 游子 -0.2218
-3.7300 溜须拍马 -0.2218
-3.7300 滚犊子 -0.2218
-3.7300 激进分子 -0.2218
-3.7300 炉子 -0.2218
-3.7300 炎黄子孙 -0.2218
-3.7300 炸丸子 -0.2218
-3.7300 炸子鸡 -0.2218
-3.7300 点子 -0.2218
-3.7300 烂摊子 -0.2218
-3.7300 烧茄子 -0.2218
-3.7300 照 -0.2218
-3.7300 照东 -0.2218
-3.7300 照亮 -0.2218
-3.7300 照会 -0.2218
-3.7300 照作不误 -0.2218
-3.7300 照例 -0.2218
-3.7300 照做 -0.2218
-3.7300 照像 -0.2218
-3.7300 照像机 -0.2218
-3.7300 照准 -0.2218
-3.7300 照办 -0.2218
-3.7300 照单全收 -0.2218
-3.7300 照原样 -0.2218
-3.7300 照发 -0.2218
-3.7300 照均 -0.2218
-3.7300 照壁 -0.2218
-3.7300 照妖镜 -0.2218
-3.7300 照射 -0.2218
-3.7300 照常 -0.2218
-3.7300 照庆 -0.2218
-3.7300 照应 -0.2218
-3.7300 照度 -0.2218
-3.7300 照抄 -0.2218
-3.7300 照护 -0.2218
-3.7300 照搬 -0.2218
-3.7300 照料 -0.2218
-3.7300 照旧 -0.2218
-3.7300 照明 -0.2218
-3.7300 照明弹 -0.2218
-3.7300 照明灯 -0.2218
-3.7300 照映 -0.2218
-3.7300 照本宣科 -0.2218
-3.7300 照片 -0.2218
-3.7300 照猫画虎 -0.2218
-3.7300 照理 -0.2218
-3.7300 照登 -0.2218
-3.7300 照直 -0.2218
-3.7300 照相 -0.2218
-3.7300 照相机 -0.2218
-3.7300 照相馆 -0.2218
-3.7300 照看 -0.2218
-3.7300 照眼 -0.2218
-3.7300 照着 -0.2218
-3.7300 照秀 -0.2218
-3.7300 照章 -0.2218
-3.7300 照管 -0.2218
-3.7300 照约定 -0.2218
-3.7300 照耀 -0.2218
-3.7300 照葫芦画瓢 -0.2218
-3.7300 照说 -0.2218
-3.4289 照镜子 -0.2218
-3.7300 照面 -0.2218
-3.7300 照顾 -0.2218
-3.7300 熊孩子 -0.2218
-3.7300 熊瞎子 -0.2218
-3.7300 爪子 -0.2218
-3.7300 爱子 -0.2218
-3.7300 爱民如子 -0.2218
-3.7300 爱面子 -0.2218
-3.7300 父子 -0.2218
-3.7300 父慈子孝 -0.2218
-3.7300 片子 -0.2218
-3.7300 牌子 -0.2218
-3.7300 牙子 -0.2218
-3.7300 牛鼻子 -0.2218
-3.7300 牵着鼻子走 -0.2218
-3.7300 犊子 -0.2218
-3.7300 犯罪分子 -0.2218
-3.7300 犹子 -0.2218
-3.7300 狍子 -0.2218
-3.7300 狗崽子 -0.2218
-3.7300 独生子 -0.2218
-3.7300 狮子 -0.2218
-3.7300 狸子 -0.2218
-3.7300 狼子野心 -0.2218
-3.7300 猛子 -0.2218
-3.7300 猫哭耗子 -0.2218
-3.7300 猴子 -0.2218
-3.7300 猴子偷桃 -0.2218
-3.7300 猴孩子 -0.2218
-3.7300 猸子 -0.2218
-3.7300 王子 -0.2218
-3.7300 玫瑰茄 -0.2218
-3.7300 玻色子 -0.2218
-3.7300 珍珠小番茄 -0.2218
-3.7300 珠子 -0.2218
-3.7300 班子 -0.2218
-3.7300 球拍 -0.2218
-3.7300 瓜子 -0.2218
-3.7300 瓜子脸 -0.2218
-3.7300 瓶子 -0.2218
-3.7300 甜子 -0.2218
-3.7300 甲子 -0.2218
-3.7300 电子 -0.2218
-3.7300 电照明 -0.2218
-3.7300 电蚊拍 -0.2218
-3.7300 男子 -0.2218
-3.7300 男子气概 -0.2218
-3.7300 男子汉 -0.2218
-3.7300 男孩子 -0.2218
-3.7300 番茄 -0.2218
-3.7300 番茄汁 -0.2218
-3.7300 番茄红素 -0.2218
-3.7300 番茄酱 -0.2218
-3.7300 疟子 -0.2218
-3.7300 疯子 -0.2218
-3.7300 疹子 -0.2218
-3.7300 病因子 -0.2218
-3.7300 病秧子 -0.2218
-3.7300 痞子 -0.2218
-3.7300 瘤子 -0.2218
-3.7300 瘦子 -0.2218
-3.7300 瘫子 -0.2218
-3.7300 瘸子 -0.2218
-3.7300 瘾君子 -0.2218
-3.7300 登徒子 -0.2218
-3.7300 白苋紫茄 -0.2218
-3.7300 白马王子 -0.2218
-3.7300 白鼻子 -0.2218
-3.7300 百合子 -0.2218
-3.7300 皇太子 -0.2218
-3.7300 皮子 -0.2218
-3.7300 盆子 -0.2218
-3.7300 盒子 -0.2218
-3.7300 盖子 -0.2218
-3.7300 盘子 -0.2218
-3.7300 盘杠子 -0.2218
-3.7300 相夫教子 -0.2218
-3.7300 看样子 -0.2218
-3.7300 真子集 -0.2218
-3.7300 眸子 -0.2218
-3.7300 眼珠子 -0.2218
-3.7300 眼皮子 -0.2218
-3.7300 瞎子 -0.2218
-3.7300 瞎子摸象 -0.2218
-3.7300 知子莫若父 -0.2218
-3.7300 知识份子 -0.2218
-3.7300 矮子 -0.2218
-3.7300 石子 -0.2218
-3.7300 石狮子 -0.2218
-3.7300 矸子 -0.2218
-3.7300 码子 -0.2218
-3.7300 砂子 -0.2218
-3.7300 砣子 -0.2218
-3.7300 碍面子 -0.2218
-3.7300 碟子 -0.2218
-3.7300 碰一鼻子灰 -0.2218
-3.7300 碰钉子 -0.2218
-3.7300 磨破嘴皮子 -0.2218
-3.7300 票贩子 -0.2218
-3.7300 福星高照 -0.2218
-3.7300 离子 -0.2218
-3.7300 私生子 -0.2218
-3.7300 秃子 -0.2218
-3.7300 种子 -0.2218
-3.7300 秕子 -0.2218
-3.7300 租子 -0.2218
-3.7300 秧子 -0.2218
-3.7300 积极分子 -0.2218
-3.7300 程子 -0.2218
-3.7300 稚子 -0.2218
-3.7300 稻子 -0.2218
-3.7300 稿子 -0.2218
-3.7300 穷棒子 -0.2218
-3.7300 空拍 -0.2218
-3.7300 空拍机 -0.2218
-3.7300 窑子 -0.2218
-3.7300 窝子 -0.2218
-3.7300 立体照片 -0.2218
-3.7300 竞拍 -0.2218
-3.7300 童子尿 -0.2218
-3.7300 端子 -0.2218
-3.7300 端架子 -0.2218
-3.7300 竹子 -0.2218
-3.7300 竿子 -0.2218
-3.7300 笆篱子 -0.2218
-3.7300 笔杆子 -0.2218
-3.7300 笛子 -0.2218
-3.7300 笼子 -0.2218
-3.7300 等离子 -0.2218
-3.7300 筏子 -0.2218
-3.7300 筒子 -0.2218
-3.7300 筛子 -0.2218
-3.7300 筷子 -0.2218
-3.7300 筹子 -0.2218
-3.7300 筹拍 -0.2218
-3.7300 箍子 -0.2218
-3.7300 箕子 -0.2218
-3.7300 算子 -0.2218
-3.7300 管子 -0.2218
-3.7300 箱子 -0.2218
-3.7300 篦子 -0.2218
-3.7300 篮子 -0.2218
-3.7300 簿子 -0.2218
-3.7300 粒子 -0.2218
-3.7300 粽子 -0.2218
-3.7300 精子 -0.2218
-3.7300 组照 -0.2218
-3.7300 美照 -0.2218
-3.7300 翻拍 -0.2218
-3.7300 老照 -0.2218
-3.7300 肚照 -0.2218
-3.7300 肝胆相照 -0.2218
-3.7300 胡笳十八拍 -0.2218
-3.7300 自拍 -0.2218
-3.7300 自拍器 -0.2218
-3.7300 自拍杆 -0.2218
-3.7300 自拍模式 -0.2218
-3.7300 自拍照 -0.2218
-3.7300 自拍神器 -0.2218
-3.7300 航拍 -0.2218
-3.7300 艳照 -0.2218
-3.7300 节拍 -0.2218
-3.7300 节拍器 -0.2218
-3.7300 苍蝇拍 -0.2218
-3.7300 茄 -0.2218
-3.7300 茄克 -0.2218
-3.7300 茄克衫 -0.2218
-3.7300 茄子 -0.2218
-3.7300 茄红素 -0.2218
-3.7300 荷兰式拍卖 -0.2218
-3.7300 蕃茄 -0.2218
-3.7300 裸照 -0.2218
-3.7300 证照 -0.2218
-3.7300 请多关照 -0.2218
-3.7300 起拍 -0.2218
-3.7300 跟拍 -0.2218
-3.7300 车照 -0.2218
-3.7300 辐照 -0.2218
-3.7300 近照 -0.2218
-3.7300 连拍 -0.2218
-3.7300 遗照 -0.2218
-3.7300 遵照 -0.2218
-3.7300 重拍 -0.2218
-3.7300 野颠茄 -0.2218
-3.7300 铁板茄子 -0.2218
-3.7300 雪茄 -0.2218
-3.7300 雪茄头 -0.2218
-3.7300 雪茄烟 -0.2218
-3.7300 靓照 -0.2218
-3.7300 颠茄 -0.2218
-3.7300 驾照 -0.2218
-3.7300 驾驶执照 -0.2218

\2-grams:
-3.2529 <s> 一下子 0.0000
-3.2529 <s> 一个巴掌拍不响 0.0000
-3.2529 <s> 一子 0.0000
-3.2529 <s> 一家子 0.0000
-3.2529 <s> 一抿子 0.0000
-3.2529 <s> 一拍两散 0.0000
-3.2529 <s> 一拍即合 0.0000
-3.2529 <s> 一揽子 0.0000
-3.2529 <s> 一甲子 0.0000
-3.2529 <s> 一肚子 0.0000
-3.2529 <s> 一股子 0.0000
-3.2529 <s> 一辈子 0.0000
-3.2529 <s> 一锤子买卖 0.0000
-3.2529 <s> 一阵子 0.0000
-3.2529 <s> 一面镜子 0.0000
-3.2529 <s> 丁子高 0.0000
-3.2529 <s> 七子 0.0000
-3.2529 <s> 三子 0.0000
-3.2529 <s> 上拍 0.0000
-3.2529 <s> 上辈子 0.0000
-3.2529 <s> 上馆子 0.0000
-3.2529 <s> 下子 0.0000
-3.2529 <s> 下辈子 0.0000
-3.2529 <s> 下馆子 0.0000
-3.2529 <s> 不入虎穴焉得虎子 0.0000
-3.2529 <s> 不成样子 0.0000
-3.2529 <s> 不法分子 0.0000
-3.2529 <s> 不见兔子不撒鹰 0.0000
-3.2529 <s> 世子 0.0000
-3.2529 <s> 丙子 0.0000
-3.2529 <s> 东一榔头西一棒子 0.0000
-3.2529 <s> 东坡肘子 0.0000
-3.2529 <s> 东洋鬼子 0.0000
-3.2529 <s> 丢面子 0.0000
-3.2529 <s> 两下子 0.0000
-3.2529 <s> 两口子 0.0000
-3.2529 <s> 两子 0.0000
-3.2529 <s> 两把刷子 0.0000
-3.2529 <s> 个子 0.0000
-3.2529 <s> 丫头片子 0.0000
-3.2529 <s> 中英文对照 0.0000
-3.2529 <s> 丸子 0.0000
-3.2529 <s> 主子 0.0000
-3.2529 <s> 义子 0.0000
-3.2529 <s> 乏人照顾 0.0000
-3.2529 <s> 乐子 0.0000
-3.2529 <s> 乒乓球拍 0.0000
-3.2529 <s> 九子 0.0000
-3.2529 <s> 书呆子 0.0000
-3.2529 <s> 买面子 0.0000
-3.2529 <s> 乱臣贼子 0.0000
-3.2529 <s> 予以照顾 0.0000
-3.2529 <s> 争面子 0.0000
-3.2529 <s> 事故照射 0.0000
-3.2529 <s> 二子 0.0000
-3.2529 <s> 二尕子 0.0000
-3.2529 <s> 二愣子 0.0000
-3.2529 <s> 二杆子 0.0000
-3.2529 <s> 二毛子 0.0000
-3.2529 <s> 二流子 0.0000
-3.2529 <s> 二鬼子 0.0000
-3.2529 <s> 五味子 0.0000
-3.2529 <s> 五子棋 0.0000
-3.2529 <s> 亚原子 0.0000
-3.2529 <s> 京片子 0.0000
-3.2529 <s> 亭子 0.0000
-3.2529 <s> 亲子 0.0000
-3.2529 <s> 亲子鉴定 0.0000
-3.2529 <s> 亲生子女 0.0000
-3.2529 <s> 人工照亮 0.0000
-3.2529 <s> 仁人君子 0.0000
-3.2529 <s> 仙子 0.0000
-3.2529 <s> 以子之矛攻子之盾 0.0000
-3.2529 <s> 以小人之心度君子之腹 0.0000
-3.2529 <s> 份子钱 0.0000
-3.2529 <s> 仿射子空间 0.0000
-3.2529 <s> 仿照 0.0000
-3.2529 <s> 伍子胥 0.0000
-3.2529 <s> 会子 0.0000
-3.2529 <s> 伢子 0.0000
-3.2529 <s> 伪君子 0.0000
-3.2529 <s> 位子 0.0000
-3.2529 <s> 佛子 0.0000
-3.2529 <s> 佳人才子 0.0000
-3.2529 <s> 侄子 0.0000
-3.2529 <s> 侉子 0.0000
-3.2529 <s> 例子 0.0000
-3.2529 <s> 依照 0.0000
-3.2529 <s> 借腹生子 0.0000
-3.2529 <s> 假嗓子 0.0000
-3.2529 <s> 假小子 0.0000
-3.2529 <s> 偷拍 0.0000
-3.2529 <s> 偷汉子 0.0000
-3.2529 <s> 傻子 0.0000
-3.2529 <s> 儿子 0.0000
-3.2529 <s> 兆电子伏 0.0000
-3.2529 <s> 光子 0.0000
-3.2529 <s> 光照 0.0000
-3.2529 <s> 光照度 0.0000
-3.2529 <s> 光电子 0.0000
-3.2529 <s> 光膀子 0.0000
-3.2529 <s> 克丝钳子 0.0000
-3.2529 <s> 兔子 0.0000
-3.2529 <s> 兔子不吃窝边草 0.0000
-3.2529 <s> 兔崽子 0.0000
-3.2529 <s> 兔羔子 0.0000
-3.2529 <s> 兜圈子 0.0000
-3.2529 <s> 八旗子弟 0.0000
-3.2529 <s> 八辈子 0.0000
-3.2529 <s> 公因子 0.0000
-3.2529 <s> 公子 0.0000
-3.2529 <s> 公子哥儿 0.0000
-3.2529 <s> 关照 0.0000
-3.2529 <s> 关门弟子 0.0000
-3.2529 <s> 养子 0.0000
-3.2529 <s> 册子 0.0000
-3.2529 <s> 写照 0.0000
-3.2529 <s> 凡夫俗子 0.0000
-3.2529 <s> 凭照 0.0000
-3.2529 <s> 凯子 0.0000
-3.2529 <s> 凳子 0.0000
-3.2529 <s> 出乱子 0.0000
-3.2529 <s> 出份子 0.0000
-3.2529 <s> 分子 0.0000
-3.2529 <s> 划子 0.0000
-3.2529 <s> 列子 0.0000
-3.2529 <s> 刘涓子 0.0000
-3.2529 <s> 创牌子 0.0000
-3.2529 <s> 刨子 0.0000
-3.2529 <s> 别子 0.0000
-3.2529 <s> 刮胡子 0.0000
-3.2529 <s> 刷子 0.0000
-3.2529 <s> 刽子手 0.0000
-3.2529 <s> 剂子 0.0000
-3.2529 <s> 剧照 0.0000
-3.2529 <s> 剪子 0.0000
-3.2529 <s> 动嘴皮子 0.0000
-3.2529 <s> 势子 0.0000
-3.2529 <s> 勒脖子 0.0000
-3.2529 <s> 勺子 0.0000
-3.2529 <s> 包子 0.0000
-3.2529 <s> 包饺子 0.0000
-3.2529 <s> 化子 0.0000
-3.2529 <s> 匣子 0.0000
-3.2529 <s> 半吊子 0.0000
-3.2529 <s> 半拉子 0.0000
-3.2529 <s> 半瓶子醋 0.0000
-3.2529 <s> 半辈子 0.0000
-3.2529 <s> 单色照片 0.0000
-3.2529 <s> 卖关子 0.0000
-3.2529 <s> 卖面子 0.0000
-3.2529 <s> 卡脖子 0.0000
-3.2529 <s> 卵子 0.0000
-3.2529 <s> 卷子 0.0000
-3.2529 <s> 厂子 0.0000
-3.2529 <s> 原子弹 0.0000
-3.2529 <s> 厨子 0.0000
-3.2529 <s> 参照 0.0000
-3.2529 <s> 叉子 0.0000
-3.2529 <s> 双子座 0.0000
-3.2529 <s> 叔子 0.0000
-3.2529 <s> 口子 0.0000
-3.2529 <s> 句子 0.0000
-3.2529 <s> 叫花子 0.0000
-3.2529 <s> 可疑分子 0.0000
-3.2529 <s> 右派分子 0.0000
-3.2529 <s> 吃熊心豹子胆 0.0000
-3.2529 <s> 合拍 0.0000
-3.2529 <s> 合照 0.0000
-3.2529 <s> 名子 0.0000
-3.2529 <s> 后照镜 0.0000
-3.2529 <s> 君子 0.0000
-3.2529 <s> 君子一言驷马难追 0.0000
-3.2529 <s> 君子不计小人过 0.0000
-3.2529 <s> 君子之交淡如水 0.0000
-3.2529 <s> 君子动口不动手 0.0000
-3.2529 <s> 君子坦荡荡小人长戚戚 0.0000
-3.2529 <s> 君子报仇十年不晚 0.0000
-3.2529 <s> 吹吹拍拍 0.0000
-3.2529 <s> 吹拍 0.0000
-3.2529 <s> 吹牛拍马 0.0000
-3.2529 <s> 吹胡子瞪眼 0.0000
-3.2529 <s> 呆子 0.0000
-3.2529 <s> 命根子 0.0000
-3.2529 <s> 哀子 0.0000
-3.2529 <s> 哈喇子 0.0000
-3.2529 <s> 哭鼻子 0.0000
-3.2529 <s> 嗓子 0.0000
-3.2529 <s> 嗣子 0.0000
-3.2529 <s> 嘴巴子 0.0000
-3.2529 <s> 嘴皮子 0.0000
-3.2529 <s> 回光返照 0.0000
-3.2529 <s> 因子 0.0000
-3.2529 <s> 园子 0.0000
-3.2529 <s> 国拍 0.0000
-3.2529 <s> 圈子 0.0000
-3.2529 <s> 土包子 0.0000
-3.2529 <s> 圣子 0.0000
-3.2529 <s> 圣德太子 0.0000
-3.2529 <s> 地照 0.0000
-3.2529 <s> 场子 0.0000
-3.2529 <s> 均日照 0.0000
-3.2529 <s> 坏肠子 0.0000
-3.2529 <s> 坐月子 0.0000
-3.2529 <s> 坛子 0.0000
-3.2529 <s> 垫子 0.0000
-3.2529 <s> 墨子 0.0000
-3.2529 <s> 士子 0.0000
-3.2529 <s> 壮起胆子 0.0000
-3.2529 <s> 处子秀 0.0000
-3.2529 <s> 夕照 0.0000
-3.2529 <s> 外照射 0.0000
-3.2529 <s> 多子多福 0.0000
-3.2529 <s> 夜猫子 0.0000
-3.2529 <s> 大伯子 0.0000
-3.2529 <s> 大头照 0.0000
-3.2529 <s> 大姨子 0.0000
-3.2529 <s> 大男子主义 0.0000
-3.2529 <s> 大肚子 0.0000
-3.2529 <s> 大舅子 0.0000
-3.2529 <s> 天子 0.0000
-3.2529 <s> 天然照亮 0.0000
-3.2529 <s> 太子 0.0000
-3.2529 <s> 夫子 0.0000
-3.2529 <s> 失面子 0.0000
-3.2529 <s> 头发胡子一把抓 0.0000
-3.2529 <s> 夹子 0.0000
-3.2529 <s> 奉子成婚 0.0000
-3.2529 <s> 女子 0.0000
-3.2529 <s> 女子无才便是德 0.0000
-3.2529 <s> 女孩子 0.0000
-3.2529 <s> 女汉子 0.0000
-3.2529 <s> 奶子 0.0000
-3.2529 <s> 妃子 0.0000
-3.2529 <s> 妃子笑 0.0000
-3.2529 <s> 妹子 0.0000
-3.2529 <s> 妻子 0.0000
-3.2529 <s> 妻离子散 0.0000
-3.2529 <s> 姑子 0.0000
-3.2529 <s> 姜子牙 0.0000
-3.2529 <s> 娃子 0.0000
-3.2529 <s> 娄子 0.0000
-3.2529 <s> 娘子 0.0000
-3.2529 <s> 婆子 0.0000
-3.2529 <s> 婊子 0.0000
-3.2529 <s> 婚照 0.0000
-3.2529 <s> 婶子 0.0000
-3.2529 <s> 嫂子 0.0000
-3.2529 <s> 嫡子 0.0000
-3.2529 <s> 子 0.0000
-3.2529 <s> 子不嫌母丑狗不嫌家贫 0.0000
-3.2529 <s> 子丑 0.0000
-3.2529 <s> 子之 0.0000
-3.2529 <s> 子产 0.0000
-3.2529 <s> 子京 0.0000
-3.2529 <s> 子亮 0.0000
-3.2529 <s> 子仁 0.0000
-3.2529 <s> 子代 0.0000
-3.2529 <s> 子保 0.0000
-3.2529 <s> 子儿 0.0000
-3.2529 <s> 子公司 0.0000
-3.2529 <s> 子刚 0.0000
-3.2529 <s> 子化 0.0000
-3.2529 <s> 子午线 0.0000
-3.2529 <s> 子南 0.0000
-3.2529 <s> 子双 0.0000
-3.2529 <s> 子句 0.0000
-3.2529 <s> 子叶 0.0000
-3.2529 <s> 子嗣 0.0000
-3.2529 <s> 子坚 0.0000
-3.2529 <s> 子域 0.0000
-3.2529 <s> 子夜 0.0000
-3.2529 <s> 子头 0.0000
-3.2529 <s> 子女 0.0000
-3.2529 <s> 子如 0.0000
-3.2529 <s> 子子孙孙 0.0000
-3.2529 <s> 子孙 0.0000
-3.2529 <s> 子孝父慈 0.0000
-3.2529 <s> 子学 0.0000
-3.2529 <s> 子实 0.0000
-3.2529 <s> 子宫 0.0000
-3.2529 <s> 子层 0.0000
-3.2529 <s> 子崖 0.0000
-3.2529 <s> 子帅 0.0000
-3.2529 <s> 子帆 0.0000
-3.2529 <s> 子干 0.0000
-3.2529 <s> 子建 0.0000
-3.2529 <s> 子弟 0.0000
-3.2529 <s> 子弟兵 0.0000
-3.2529 <s> 子弹 0.0000
-3.2529 <s> 子强 0.0000
-3.2529 <s> 子心 0.0000
-3.2529 <s> 子怡 0.0000
-3.2529 <s> 子房 0.0000
-3.2529 <s> 子才 0.0000
-3.2529 <s> 子扬 0.0000
-3.2529 <s> 子日 0.0000
-3.2529 <s> 子时 0.0000
-3.2529 <s> 子昂 0.0000
-3.2529 <s> 子晨 0.0000
-3.2529 <s> 子晴 0.0000
-3.2529 <s> 子曰 0.0000
-3.2529 <s> 子本 0.0000
-3.2529 <s> 子树 0.0000
-3.2529 <s> 子模型 0.0000
-3.2529 <s> 子歌 0.0000
-3.2529 <s> 子正 0.0000
-3.2529 <s> 子民 0.0000
-3.2529 <s> 子河 0.0000
-3.2529 <s> 子洋 0.0000
-3.2529 <s> 子洪 0.0000
-3.2529 <s> 子洲 0.0000
-3.2529 <s> 子涵 0.0000
-3.2529 <s> 子淇 0.0000
-3.2529 <s> 子游 0.0000
-3.2529 <s> 子瀚 0.0000
-3.2529 <s> 子爱 0.0000
-3.2529 <s> 子爵 0.0000
-3.2529 <s> 子猪 0.0000
-3.2529 <s> 子玉 0.0000
-3.2529 <s> 子珊 0.0000
-3.2529 <s> 子球 0.0000
-3.2529 <s> 子癫前症 0.0000
-3.2529 <s> 子目 0.0000
-3.2529 <s> 子目录 0.0000
-3.2529 <s> 子真 0.0000
-3.2529 <s> 子科 0.0000
-3.2529 <s> 子程序 0.0000
-3.2529 <s> 子空间 0.0000
-3.2529 <s> 子章 0.0000
-3.2529 <s> 子粒 0.0000
-3.2529 <s> 子精 0.0000
-3.2529 <s> 子系统 0.0000
-3.2529 <s> 子细 0.0000
-3.2529 <s> 子细胞 0.0000
-3.2529 <s> 子美 0.0000
-3.2529 <s> 子群 0.0000
-3.2529 <s> 子能 0.0000
-3.2529 <s> 子范 0.0000
-3.2529 <s> 子菜 0.0000
-3.2529 <s> 子萌 0.0000
-3.2529 <s> 子虚 0.0000
-3.2529 <s> 子行 0.0000
-3.2529 <s> 子规 0.0000
-3.2529 <s> 子豪 0.0000
-3.2529 <s> 子贡 0.0000
-3.2529 <s> 子路 0.0000
-3.2529 <s> 子进 0.0000
-3.2529 <s> 子里 0.0000
-3.2529 <s> 子鉴 0.0000
-3.2529 <s> 子镇 0.0000
-3.2529 <s> 子集 0.0000
-3.2529 <s> 子集合 0.0000
-3.2529 <s> 子音 0.0000
-3.2529 <s> 子飞 0.0000
-3.2529 <s> 子鼠 0.0000
-3.2529 <s> 孔夫子 0.0000
-3.2529 <s> 孔子 0.0000
-3.2529 <s> 字纸篓子 0.0000
-3.2529 <s> 孙子 0.0000
-3.2529 <s> 孙子兵法 0.0000
-3.2529 <s> 孝子 0.0000
-3.2529 <s> 孟子 0.0000
-3.2529 <s> 孢子 0.0000
-3.2529 <s> 季子 0.0000
-3.2529 <s> 孤哀子 0.0000
-3.2529 <s> 孤子 0.0000
-3.2529 <s> 孤立子 0.0000
-3.2529 <s> 学子 0.0000
-3.2529 <s> 孩子 0.0000
-3.2529 <s> 孩子们 0.0000
-3.2529 <s> 孩子气 0.0000
-3.2529 <s> 孽子 0.0000
-3.2529 <s> 宅子 0.0000
-3.2529 <s> 官子 0.0000
-3.2529 <s> 官架子 0.0000
-3.2529 <s> 定子 0.0000
-3.2529 <s> 定调子 0.0000
-3.2529 <s> 实拍 0.0000
-3.2529 <s> 家子 0.0000
-3.2529 <s> 寄子 0.0000
-3.2529 <s> 密码子 0.0000
-3.2529 <s> 寨子 0.0000
-3.2529 <s> 对照 0.0000
-3.2529 <s> 对照实验 0.0000
-3.2529 <s> 对照表 0.0000
-3.2529 <s> 小伙子 0.0000
-3.2529 <s> 小册子 0.0000
-3.2529 <s> 小姑子 0.0000
-3.2529 <s> 小姨子 0.0000
-3.2529 <s> 小子 0.0000
-3.2529 <s> 小孩子 0.0000
-3.2529 <s> 小家子气 0.0000
-3.2529 <s> 小房子 0.0000
-3.2529 <s> 小日子 0.0000
-3.2529 <s> 小段子 0.0000
-3.2529 <s> 小碟子 0.0000
-3.2529 <s> 小胖子 0.0000
-3.2529 <s> 小舅子 0.0000
-3.2529 <s> 小辫子 0.0000
-3.2529 <s> 小铲子 0.0000
-3.2529 <s> 尖子生 0.0000
-3.2529 <s> 尺子 0.0000
-3.2529 <s> 屋子 0.0000
-3.2529 <s> 屯子 0.0000
-3.2529 <s> 岔子 0.0000
-3.2529 <s> 左嗓子 0.0000
-3.2529 <s> 左撇子 0.0000
-3.2529 <s> 巷子 0.0000
-3.2529 <s> 帐子 0.0000
-3.2529 <s> 帕子 0.0000
-3.2529 <s> 帖子 0.0000
-3.2529 <s> 帘子 0.0000
-3.2529 <s> 带子 0.0000
-3.2529 <s> 席子 0.0000
-3.2529 <s> 帮子 0.0000
-3.2529 <s> 帽子 0.0000
-3.2529 <s> 帽子戏法 0.0000
-3.2529 <s> 幌子 0.0000
-3.2529 <s> 幔子 0.0000
-3.2529 <s> 干儿子 0.0000
-3.2529 <s> 年均日照 0.0000
-3.2529 <s> 庄子 0.0000
-3.2529 <s> 应急照射 0.0000
-3.2529 <s> 底子 0.0000
-3.2529 <s> 庶子 0.0000
-3.2529 <s> 开口子 0.0000
-3.2529 <s> 开拍 0.0000
-3.2529 <s> 式子 0.0000
-3.2529 <s> 引子 0.0000
-3.2529 <s> 弟子 0.0000
-3.2529 <s> 弯子 0.0000
-3.2529 <s> 弹子 0.0000
-3.2529 <s> 强子 0.0000
-3.2529 <s> 彬彬君子 0.0000
-3.2529 <s> 影子 0.0000
-3.2529 <s> 心照 0.0000
-3.2529 <s> 心照不宣 0.0000
-3.2529 <s> 快照 0.0000
-3.2529 <s> 急性子 0.0000
-3.2529 <s> 急性照射 0.0000
-3.2529 <s> 急拍拍 0.0000
-3.2529 <s> 恐怖份子 0.0000
-3.2529 <s> 慈照寺 0.0000
-3.2529 <s> 慢性子 0.0000
-3.2529 <s> 戏子 0.0000
-3.2529 <s> 成样子 0.0000
-3.2529 <s> 房子 0.0000
-3.2529 <s> 扇子 0.0000
-3.2529 <s> 才子 0.0000
-3.2529 <s> 才子佳人 0.0000
-3.2529 <s> 打开话匣子 0.0000
-3.2529 <s> 打拍 0.0000
-2.9518 <s> 打拍子 0.0000
-3.2529 <s> 打肿脸充胖子 0.0000
-3.2529 <s> 扛把子 0.0000
-3.2529 <s> 扣子 0.0000
-3.2529 <s> 执照 0.0000
-3.2529 <s> 扯嗓子 0.0000
-3.2529 <s> 扯犊子 0.0000
-3.2529 <s> 扳子 0.0000
-3.2529 <s> 承蒙关照 0.0000
-3.2529 <s> 抄靶子 0.0000
-3.2529 <s> 抓小辫子 0.0000
-3.2529 <s> 抓拍 0.0000
-3.2529 <s> 投拍 0.0000
-3.2529 <s> 护照 0.0000
-3.2529 <s> 护犊子 0.0000
-3.2529 <s> 抬轿子 0.0000
-3.2529 <s> 抹一鼻子灰 0.0000
-3.2529 <s> 担子 0.0000
-3.2529 <s> 拉场子 0.0000
-3.2529 <s> 拉肚子 0.0000
-3.2529 <s> 拍 0.0000
-3.2529 <s> 拍出 0.0000
-3.2529 <s> 拍击 0.0000
-3.2529 <s> 拍剧 0.0000
-3.2529 <s> 拍卖 0.0000
-3.2529 <s> 拍卖会 0.0000
-3.2529 <s> 拍卖商 0.0000
-3.2529 <s> 拍发 0.0000
-3.2529 <s> 拍号 0.0000
-3.2529 <s> 拍婆子 0.0000
-2.9518 <s> 拍子 0.0000
-3.2529 <s> 拍岸 0.0000
-3.2529 <s> 拍戏 0.0000
-3.2529 <s> 拍手 0.0000
-3.2529 <s> 拍打 0.0000
-3.2529 <s> 拍拍 0.0000
-3.2529 <s> 拍拍屁股走人 0.0000
-3.2529 <s> 拍拖 0.0000
-3.2529 <s> 拍摄 0.0000
-3.2529 <s> 拍板 0.0000
-3.2529 <s> 拍案 0.0000
-3.2529 <s> 拍案叫绝 0.0000
-3.2529 <s> 拍案惊奇 0.0000
-3.2529 <s> 拍案而起 0.0000
-3.2529 <s> 拍档 0.0000
-3.2529 <s> 拍演 0.0000
-3.2529 <s> 拍照 0.0000
-3.2529 <s> 拍片 0.0000
-3.2529 <s> 拍电 0.0000
-3.2529 <s> 拍电影 0.0000
-3.2529 <s> 拍立得 0.0000
-3.2529 <s> 拍纸簿 0.0000
-3.2529 <s> 拍胸脯 0.0000
-3.2529 <s> 拍马 0.0000
-3.2529 <s> 拍马屁 0.0000
-3.2529 <s> 拍马者 0.0000
-3.2529 <s> 拐子 0.0000
-3.2529 <s> 拔罐子 0.0000
-3.2529 <s> 拜把子 0.0000
-3.2529 <s> 择日子 0.0000
-3.2529 <s> 按照 0.0000
-3.2529 <s> 按照字面 0.0000
-3.2529 <s> 按照法律 0.0000
-3.2529 <s> 按照计划 0.0000
-3.2529 <s> 捶子 0.0000
-3.2529 <s> 掉链子 0.0000
-3.2529 <s> 掐脖子 0.0000
-3.2529 <s> 探子 0.0000
-3.2529 <s> 探照灯 0.0000
-3.2529 <s> 探身子 0.0000
-3.2529 <s> 接拍 0.0000
-3.2529 <s> 推子 0.0000
-3.2529 <s> 掸子 0.0000
-3.2529 <s> 提子 0.0000
-3.2529 <s> 揪辫子 0.0000
-3.2529 <s> 摊子 0.0000
-3.2529 <s> 摘帽子 0.0000
-3.2529 <s> 撒丫子 0.0000
-3.2529 <s> 放鸽子 0.0000
-3.2529 <s> 故家子弟 0.0000
-3.2529 <s> 敌特分子 0.0000
-3.2529 <s> 教子 0.0000
-3.2529 <s> 数码照相机 0.0000
-3.2529 <s> 斧子 0.0000
-3.2529 <s> 新娘子 0.0000
-3.2529 <s> 新照 0.0000
-3.2529 <s> 无照经营 0.0000
-3.2529 <s> 日照 0.0000
-3.2529 <s> 早生贵子 0.0000
-3.2529 <s> 旱鸭子 0.0000
-3.2529 <s> 星照 0.0000
-3.2529 <s> 映照 0.0000
-3.2529 <s> 普照 0.0000
-3.2529 <s> 曲子 0.0000
-3.2529 <s> 最大公因子 0.0000
-3.2529 <s> 月子 0.0000
-3.2529 <s> 有两下子 0.0000
-3.2529 <s> 有机分子 0.0000
-3.2529 <s> 朗照 0.0000
-3.2529 <s> 望子成龙 0.0000
-3.2529 <s> 木子 0.0000
-3.2529 <s> 李清照 0.0000
-3.2529 <s> 村子 0.0000
-3.2529 <s> 杓子 0.0000
-3.2529 <s> 杠子 0.0000
-3.2529 <s> 条子 0.0000
-3.2529 <s> 杯子 0.0000
-3.2529 <s> 松子 0.0000
-3.2529 <s> 板子 0.0000
-3.2529 <s> 林子聪 0.0000
-3.2529 <s> 枚子 0.0000
-3.2529 <s> 枝子 0.0000
-3.2529 <s> 枣子 0.0000
-3.2529 <s> 枪杆子 0.0000
-3.2529 <s> 架子 0.0000
-3.2529 <s> 枸杞子 0.0000
-3.2529 <s> 柚子 0.0000
-3.2529 <s> 柜子 0.0000
-3.2529 <s> 柱子 0.0000
-3.2529 <s> 柳子戏 0.0000
-3.2529 <s> 柿子 0.0000
-3.2529 <s> 栀子 0.0000
-3.2529 <s> 栀子花 0.0000
-3.2529 <s> 栅子 0.0000
-3.2529 <s> 栗子 0.0000
-3.2529 <s> 样子 0.0000
-3.2529 <s> 核子 0.0000
-3.2529 <s> 格子 0.0000
-3.2529 <s> 栽子 0.0000
-3.2529 <s> 桃子 0.0000
-3.2529 <s> 框子 0.0000
-3.2529 <s> 案子 0.0000
-3.2529 <s> 桌子 0.0000
-3.2529 <s> 桔子 0.0000
-3.2529 <s> 档子 0.0000
-3.2529 <s> 桩子 0.0000
-3.2529 <s> 梁上君子 0.0000
-3.2529 <s> 梁子 0.0000
-3.2529 <s> 梅子 0.0000
-3.2529 <s> 梨园子弟 0.0000
-3.2529 <s> 梨子 0.0000
-3.2529 <s> 梭子 0.0000
-3.2529 <s> 梯子 0.0000
-3.2529 <s> 梳子 0.0000
-3.2529 <s> 棋子 0.0000
-3.2529 <s> 棍子 0.0000
-3.2529 <s> 棒子 0.0000
-3.2529 <s> 棚子 0.0000
-3.2529 <s> 椅子 0.0000
-3.2529 <s> 椰子 0.0000
-3.2529 <s> 模子 0.0000
-3.2529 <s> 樱桃小番茄 0.0000
-3.2529 <s> 樵子 0.0000
-3.2529 <s> 橘子 0.0000
-3.2529 <s> 橙子 0.0000
-3.2529 <s> 橱子 0.0000
-3.2529 <s> 次子 0.0000
-3.2529 <s> 欧米茄 0.0000
-3.2529 <s> 欧米茄表公司 0.0000
-3.2529 <s> 正人君子 0.0000
-3.2529 <s> 正离子 0.0000
-3.2529 <s> 步子 0.0000
-3.2529 <s> 武装分子 0.0000
-3.2529 <s> 歪点子 0.0000
-3.2529 <s> 死要面子 0.0000
-3.2529 <s> 段子 0.0000
-3.2529 <s> 母子 0.0000
-3.2529 <s> 比照 0.0000
-3.2529 <s> 毛孩子 0.0000
-3.2529 <s> 毡子 0.0000
-3.2529 <s> 毯子 0.0000
-3.2529 <s> 求子 0.0000
-3.2529 <s> 汉子 0.0000
-3.2529 <s> 江湖骗子 0.0000
-3.2529 <s> 洋鬼子 0.0000
-3.2529 <s> 洗照片 0.0000
-3.2529 <s> 活跃分子 0.0000
-3.2529 <s> 活靶子 0.0000
-3.2529 <s> 浪子 0.0000
-3.2529 <s> 海外赤子 0.0000
-3.2529 <s> 海瓜子 0.0000
-3.2529 <s> 海蛎子 0.0000
-3.2529 <s> 涮锅子 0.0000
-3.2529 <s> 淑人君子 0.0000
-3.2529 <s> 混日子 0.0000
-3.2529 <s> 游子 0.0000
-3.2529 <s> 溜须拍马 0.0000
-3.2529 <s> 滚犊子 0.0000
-3.2529 <s> 激进分子 0.0000
-3.2529 <s> 炉子 0.0000
-3.2529 <s> 炎黄子孙 0.0000
-3.2529 <s> 炸丸子 0.0000
-3.2529 <s> 炸子鸡 0.0000
-3.2529 <s> 点子 0.0000
-3.2529 <s> 烂摊子 0.0000
-3.2529 <s> 烧茄子 0.0000
-3.2529 <s> 照 0.0000
-3.2529 <s> 照东 0.0000
-3.2529 <s> 照亮 0.0000
-3.2529 <s> 照会 0.0000
-3.2529 <s> 照作不误 0.0000
-3.2529 <s> 照例 0.0000
-3.2529 <s> 照做 0.0000
-3.2529 <s> 照像 0.0000
-3.2529 <s> 照像机 0.0000
-3.2529 <s> 照准 0.0000
-3.2529 <s> 照办 0.0000
-3.2529 <s> 照单全收 0.0000
-3.2529 <s> 照原样 0.0000
-3.2529 <s> 照发 0.0000
-3.2529 <s> 照均 0.0000
-3.2529 <s> 照壁 0.0000
-3.2529 <s> 照妖镜 0.0000
-3.2529 <s> 照射 0.0000
-3.2529 <s> 照常 0.0000
-3.2529 <s> 照庆 0.0000
-3.2529 <s> 照应 0.0000
-3.2529 <s> 照度 0.0000
-3.2529 <s> 照抄 0.0000
-3.2529 <s> 照护 0.0000
-3.2529 <s> 照搬 0.0000
-3.2529 <s> 照料 0.0000
-3.2529 <s> 照旧 0.0000
-3.2529 <s> 照明 0.0000
-3.2529 <s> 照明弹 0.0000
-3.2529 <s> 照明灯 0.0000
-3.2529 <s> 照映 0.0000
-3.2529 <s> 照本宣科 0.0000
-3.2529 <s> 照片 0.0000
-3.2529 <s> 照猫画虎 0.0000
-3.2529 <s> 照理 0.0000
-3.2529 <s> 照登 0.0000
-3.2529 <s> 照直 0.0000
-3.2529 <s> 照相 0.0000
-3.2529 <s> 照相机 0.0000
-3.2529 <s> 照相馆 0.0000
-3.2529 <s> 照看 0.0000
-3.2529 <s> 照眼 0.0000
-3.2529 <s> 照着 0.0000
-3.2529 <s> 照秀 0.0000
-3.2529 <s> 照章 0.0000
-3.2529 <s> 照管 0.0000
-3.2529 <s> 照约定 0.0000
-3.2529 <s> 照耀 0.0000
-3.2529 <s> 照葫芦画瓢 0.0000
-3.2529 <s> 照说 0.0000
-2.9518 <s> 照镜子 0.0000
-3.2529 <s> 照面 0.0000
-3.2529 <s> 照顾 0.0000
-3.2529 <s> 熊孩子 0.0000
-3.2529 <s> 熊瞎子 0.0000
-3.2529 <s> 爪子 0.0000
-3.2529 <s> 爱子 0.0000
-3.2529 <s> 爱民如子 0.0000
-3.2529 <s> 爱面子 0.0000
-3.2529 <s> 父子 0.0000
-3.2529 <s> 父慈子孝 0.0000
-3.2529 <s> 片子 0.0000
-3.2529 <s> 牌子 0.0000
-3.2529 <s> 牙子 0.0000
-3.2529 <s> 牛鼻子 0.0000
-3.2529 <s> 牵着鼻子走 0.0000
-3.2529 <s> 犊子 0.0000
-3.2529 <s> 犯罪分子 0.0000
-3.2529 <s> 犹子 0.0000
-3.2529 <s> 狍子 0.0000
-3.2529 <s> 狗崽子 0.0000
-3.2529 <s> 独生子 0.0000
-3.2529 <s> 狮子 0.0000
-3.2529 <s> 狸子 0.0000
-3.2529 <s> 狼子野心 0.0000
-3.2529 <s> 猛子 0.0000
-3.2529 <s> 猫哭耗子 0.0000
-3.2529 <s> 猴子 0.0000
-3.2529 <s> 猴子偷桃 0.0000
-3.2529 <s> 猴孩子 0.0000
-3.2529 <s> 猸子 0.0000
-3.2529 <s> 王子 0.0000
-3.2529 <s> 玫瑰茄 0.0000
-3.2529 <s> 玻色子 0.0000
-3.2529 <s> 珍珠小番茄 0.0000
-3.2529 <s> 珠子 0.0000
-3.2529 <s> 班子 0.0000
-3.2529 <s> 球拍 0.0000
-3.2529 <s> 瓜子 0.0000
-3.2529 <s> 瓜子脸 0.0000
-3.2529 <s> 瓶子 0.0000
-3.2529 <s> 甜子 0.0000
-3.2529 <s> 甲子 0.0000
-3.2529 <s> 电子 0.0000
-3.2529 <s> 电照明 0.0000
-3.2529 <s> 电蚊拍 0.0000
-3.2529 <s> 男子 0.0000
-3.2529 <s> 男子气概 0.0000
-3.2529 <s> 男子汉 0.0000
-3.2529 <s> 男孩子 0.0000
-3.2529 <s> 番茄 0.0000
-3.2529 <s> 番茄汁 0.0000
-3.2529 <s> 番茄红素 0.0000
-3.2529 <s> 番茄酱 0.0000
-3.2529 <s> 疟子 0.0000
-3.2529 <s> 疯子 0.0000
-3.2529 <s> 疹子 0.0000
-3.2529 <s> 病因子 0.0000
-3.2529 <s> 病秧子 0.0000
-3.2529 <s> 痞子 0.0000
-3.2529 <s> 瘤子 0.0000
-3.2529 <s> 瘦子 0.0000
-3.2529 <s> 瘫子 0.0000
-3.2529 <s> 瘸子 0.0000
-3.2529 <s> 瘾君子 0.0000
-3.2529 <s> 登徒子 0.0000
-3.2529 <s> 白苋紫茄 0.0000
-3.2529 <s> 白马王子 0.0000
-3.2529 <s> 白鼻子 0.0000
-3.2529 <s> 百合子 0.0000
-3.2529 <s> 皇太子 0.0000
-3.2529 <s> 皮子 0.0000
-3.2529 <s> 盆子 0.0000
-3.2529 <s> 盒子 0.0000
-3.2529 <s> 盖子 0.0000
-3.2529 <s> 盘子 0.0000
-3.2529 <s> 盘杠子 0.0000
-3.2529 <s> 相夫教子 0.0000
-3.2529 <s> 看样子 0.0000
-3.2529 <s> 真子集 0.0000
-3.2529 <s> 眸子 0.0000
-3.2529 <s> 眼珠子 0.0000
-3.2529 <s> 眼皮子 0.0000
-3.2529 <s> 瞎子 0.0000
-3.2529 <s> 瞎子摸象 0.0000
-3.2529 <s> 知子莫若父 0.0000
-3.2529 <s> 知识份子 0.0000
-3.2529 <s> 矮子 0.0000
-3.2529 <s> 石子 0.0000
-3.2529 <s> 石狮子 0.0000
-3.2529 <s> 矸子 0.0000
-3.2529 <s> 码子 0.0000
-3.2529 <s> 砂子 0.0000
-3.2529 <s> 砣子 0.0000
-3.2529 <s> 碍面子 0.0000
-3.2529 <s> 碟子 0.0000
-3.2529 <s> 碰一鼻子灰 0.0000
-3.2529 <s> 碰钉子 0.0000
-3.2529 <s> 磨破嘴皮子 0.0000
-3.2529 <s> 票贩子 0.0000
-3.2529 <s> 福星高照 0.0000
-3.2529 <s> 离子 0.0000
-3.2529 <s> 私生子 0.0000
-3.2529 <s> 秃子 0.0000
-3.2529 <s> 种子 0.0000
-3.2529 <s> 秕子 0.0000
-3.2529 <s> 租子 0.0000
-3.2529 <s> 秧子 0.0000
-3.2529 <s> 积极分子 0.0000
-3.2529 <s> 程子 0.0000
-3.2529 <s> 稚子 0.0000
-3.2529 <s> 稻子 0.0000
-3.2529 <s> 稿子 0.0000
-3.2529 <s> 穷棒子 0.0000
-3.2529 <s> 空拍 0.0000
-3.2529 <s> 空拍机 0.0000
-3.2529 <s> 窑子 0.0000
-3.2529 <s> 窝子 0.0000
-3.2529 <s> 立体照片 0.0000
-3.2529 <s> 竞拍 0.0000
-3.2529 <s> 童子尿 0.0000
-3.2529 <s> 端子 0.0000
-3.2529 <s> 端架子 0.0000
-3.2529 <s> 竹子 0.0000
-3.2529 <s> 竿子 0.0000
-3.2529 <s> 笆篱子 0.0000
-3.2529 <s> 笔杆子 0.0000
-3.2529 <s> 笛子 0.0000
-3.2529 <s> 笼子 0.0000
-3.2529 <s> 等离子 0.0000
-3.2529 <s> 筏子 0.0000
-3.2529 <s> 筒子 0.0000
-3.2529 <s> 筛子 0.0000
-3.2529 <s> 筷子 0.0000
-3.2529 <s> 筹子 0.0000
-3.2529 <s> 筹拍 0.0000
-3.2529 <s> 箍子 0.0000
-3.2529 <s> 箕子 0.0000
-3.2529 <s> 算子 0.0000
-3.2529 <s> 管子 0.0000
-3.2529 <s> 箱子 0.0000
-3.2529 <s> 篦子 0.0000
-3.2529 <s> 篮子 0.0000
-3.2529 <s> 簿子 0.0000
-3.2529 <s> 粒子 0.0000
-3.2529 <s> 粽子 0.0000
-3.2529 <s> 精子 0.0000
-3.2529 <s> 组照 0.0000
-3.2529 <s> 美照 0.0000
-3.2529 <s> 翻拍 0.0000
-3.2529 <s> 老照 0.0000
-3.2529 <s> 肚照 0.0000
-3.2529 <s> 肝胆相照 0.0000
-3.2529 <s> 胡笳十八拍 0.0000
-3.2529 <s> 自拍 0.0000
-3.2529 <s> 自拍器 0.0000
-3.2529 <s> 自拍杆 0.0000
-3.2529 <s> 自拍模式 0.0000
-3.2529 <s> 自拍照 0.0000
-3.2529 <s> 自拍神器 0.0000
-3.2529 <s> 航拍 0.0000
-3.2529 <s> 艳照 0.0000
-3.2529 <s> 节拍 0.0000
-3.2529 <s> 节拍器 0.0000
-3.2529 <s> 苍蝇拍 0.0000
-3.2529 <s> 茄 0.0000
-3.2529 <s> 茄克 0.0000
-3.2529 <s> 茄克衫 0.0000
-3.2529 <s> 茄子 0.0000
-3.2529 <s> 茄红素 0.0000
-3.2529 <s> 荷兰式拍卖 0.0000
-3.2529 <s> 蕃茄 0.0000
-3.2529 <s> 裸照 0.0000
-3.2529 <s> 证照 0.0000
-3.2529 <s> 请多关照 0.0000
-3.2529 <s> 起拍 0.0000
-3.2529 <s> 跟拍 0.0000
-3.2529 <s> 车照 0.0000
-3.2529 <s> 辐照 0.0000
-3.2529 <s> 近照 0.0000
-3.2529 <s> 连拍 0.0000
-3.2529 <s> 遗照 0.0000
-3.2529 <s> 遵照 0.0000
-3.2529 <s> 重拍 0.0000
-3.2529 <s> 野颠茄 0.0000
-3.2529 <s> 铁板茄子 0.0000
-3.2529 <s> 雪茄 0.0000
-3.2529 <s> 雪茄头 0.0000
-3.2529 <s> 雪茄烟 0.0000
-3.2529 <s> 靓照 0.0000
-3.2529 <s> 颠茄 0.0000
-3.2529 <s> 驾照 0.0000
-3.2529 <s> 驾驶执照 0.0000
-0.3010 一下子 </s> -0.3010
-0.3010 一个巴掌拍不响 </s> -0.3010
-0.3010 一子 </s> -0.3010
-0.3010 一家子 </s> -0.3010
-0.3010 一抿子 </s> -0.3010
-0.3010 一拍两散 </s> -0.3010
-0.3010 一拍即合 </s> -0.3010
-0.3010 一揽子 </s> -0.3010
-0.3010 一甲子 </s> -0.3010
-0.3010 一肚子 </s> -0.3010
-0.3010 一股子 </s> -0.3010
-0.3010 一辈子 </s> -0.3010
-0.3010 一锤子买卖 </s> -0.3010
-0.3010 一阵子 </s> -0.3010
-0.3010 一面镜子 </s> -0.3010
-0.3010 丁子高 </s> -0.3010
-0.3010 七子 </s> -0.3010
-0.3010 三子 </s> -0.3010
-0.3010 上拍 </s> -0.3010
-0.3010 上辈子 </s> -0.3010
-0.3010 上馆子 </s> -0.3010
-0.3010 下子 </s> -0.3010
-0.3010 下辈子 </s> -0.3010
-0.3010 下馆子 </s> -0.3010
-0.3010 不入虎穴焉得虎子 </s> -0.3010
-0.3010 不成样子 </s> -0.3010
-0.3010 不法分子 </s> -0.3010
-0.3010 不见兔子不撒鹰 </s> -0.3010
-0.3010 世子 </s> -0.3010
-0.3010 丙子 </s> -0.3010
-0.3010 东一榔头西一棒子 </s> -0.3010
-0.3010 东坡肘子 </s> -0.3010
-0.3010 东洋鬼子 </s> -0.3010
-0.3010 丢面子 </s> -0.3010
-0.3010 两下子 </s> -0.3010
-0.3010 两口子 </s> -0.3010
-0.3010 两子 </s> -0.3010
-0.3010 两把刷子 </s> -0.3010
-0.3010 个子 </s> -0.3010
-0.3010 丫头片子 </s> -0.3010
-0.3010 中英文对照 </s> -0.3010
-0.3010 丸子 </s> -0.3010
-0.3010 主子 </s> -0.3010
-0.3010 义子 </s> -0.3010
-0.3010 乏人照顾 </s> -0.3010
-0.3010 乐子 </s> -0.3010
-0.3010 乒乓球拍 </s> -0.3010
-0.3010 九子 </s> -0.3010
-0.3010 书呆子 </s> -0.3010
-0.3010 买面子 </s> -0.3010
-0.3010 乱臣贼子 </s> -0.3010
-0.3010 予以照顾 </s> -0.3010
-0.3010 争面子 </s> -0.3010
-0.3010 事故照射 </s> -0.3010
-0.3010 二子 </s> -0.3010
-0.3010 二尕子 </s> -0.3010
-0.3010 二愣子 </s> -0.3010
-0.3010 二杆子 </s> -0.3010
-0.3010 二毛子 </s> -0.3010
-0.3010 二流子 </s> -0.3010
-0.3010 二鬼子 </s> -0.3010
-0.3010 五味子 </s> -0.3010
-0.3010 五子棋 </s> -0.3010
-0.3010 亚原子 </s> -0.3010
-0.3010 京片子 </s> -0.3010
-0.3010 亭子 </s> -0.3010
-0.3010 亲子 </s> -0.3010
-0.3010 亲子鉴定 </s> -0.3010
-0.3010 亲生子女 </s> -0.3010
-0.3010 人工照亮 </s> -0.3010
-0.3010 仁人君子 </s> -0.3010
-0.3010 仙子 </s> -0.3010
-0.3010 以子之矛攻子之盾 </s> -0.3010
-0.3010 以小人之心度君子之腹 </s> -0.3010
-0.3010 份子钱 </s> -0.3010
-0.3010 仿射子空间 </s> -0.3010
-0.3010 仿照 </s> -0.3010
-0.3010 伍子胥 </s> -0.3010
-0.3010 会子 </s> -0.3010
-0.3010 伢子 </s> -0.3010
-0.3010 伪君子 </s> -0.3010
-0.3010 位子 </s> -0.3010
-0.3010 佛子 </s> -0.3010
-0.3010 佳人才子 </s> -0.3010
-0.3010 侄子 </s> -0.3010
-0.3010 侉子 </s> -0.3010
-0.3010 例子 </s> -0.3010
-0.3010 依照 </s> -0.3010
-0.3010 借腹生子 </s> -0.3010
-0.3010 假嗓子 </s> -0.3010
-0.3010 假小子 </s> -0.3010
-0.3010 偷拍 </s> -0.3010
-0.3010 偷汉子 </s> -0.3010
-0.3010 傻子 </s> -0.3010
-0.3010 儿子 </s> -0.3010
-0.3010 兆电子伏 </s> -0.3010
-0.3010 光子 </s> -0.3010
-0.3010 光照 </s> -0.3010
-0.3010 光照度 </s> -0.3010
-0.3010 光电子 </s> -0.3010
-0.3010 光膀子 </s> -0.3010
-0.3010 克丝钳子 </s> -0.3010
-0.3010 兔子 </s> -0.3010
-0.3010 兔子不吃窝边草 </s> -0.3010
-0.3010 兔崽子 </s> -0.3010
-0.3010 兔羔子 </s> -0.3010
-0.3010 兜圈子 </s> -0.3010
-0.3010 八旗子弟 </s> -0.3010
-0.3010 八辈子 </s> -0.3010
-0.3010 公因子 </s> -0.3010
-0.3010 公子 </s> -0.3010
-0.3010 公子哥儿 </s> -0.3010
-0.3010 关照 </s> -0.3010
-0.3010 关门弟子 </s> -0.3010
-0.3010 养子 </s> -0.3010
-0.3010 册子 </s> -0.3010
-0.3010 写照 </s> -0.3010
-0.3010 凡夫俗子 </s> -0.3010
-0.3010 凭照 </s> -0.3010
-0.3010 凯子 </s> -0.3010
-0.3010 凳子 </s> -0.3010
-0.3010 出乱子 </s> -0.3010
-0.3010 出份子 </s> -0.3010
-0.3010 分子 </s> -0.3010
-0.3010 划子 </s> -0.3010
-0.3010 列子 </s> -0.3010
-0.3010 刘涓子 </s> -0.3010
-0.3010 创牌子 </s> -0.3010
-0.3010 刨子 </s> -0.3010
-0.3010 别子 </s> -0.3010
-0.3010 刮胡子 </s> -0.3010
-0.3010 刷子 </s> -0.3010
-0.3010 刽子手 </s> -0.3010
-0.3010 剂子 </s> -0.3010
-0.3010 剧照 </s> -0.3010
-0.3010 剪子 </s> -0.3010
-0.3010 动嘴皮子 </s> -0.3010
-0.3010 势子 </s> -0.3010
-0.3010 勒脖子 </s> -0.3010
-0.3010 勺子 </s> -0.3010
-0.3010 包子 </s> -0.3010
-0.3010 包饺子 </s> -0.3010
-0.3010 化子 </s> -0.3010
-0.3010 匣子 </s> -0.3010
-0.3010 半吊子 </s> -0.3010
-0.3010 半拉子 </s> -0.3010
-0.3010 半瓶子醋 </s> -0.3010
-0.3010 半辈子 </s> -0.3010
-0.3010 单色照片 </s> -0.3010
-0.3010 卖关子 </s> -0.3010
-0.3010 卖面子 </s> -0.3010
-0.3010 卡脖子 </s> -0.3010
-0.3010 卵子 </s> -0.3010
-0.3010 卷子 </s> -0.3010
-0.3010 厂子 </s> -0.3010
-0.3010 原子弹 </s> -0.3010
-0.3010 厨子 </s> -0.3010
-0.3010 参照 </s> -0.3010
-0.3010 叉子 </s> -0.3010
-0.3010 双子座 </s> -0.3010
-0.3010 叔子 </s> -0.3010
-0.3010 口子 </s> -0.3010
-0.3010 句子 </s> -0.3010
-0.3010 叫花子 </s> -0.3010
-0.3010 可疑分子 </s> -0.3010
-0.3010 右派分子 </s> -0.3010
-0.3010 吃熊心豹子胆 </s> -0.3010
-0.3010 合拍 </s> -0.3010
-0.3010 合照 </s> -0.3010
-0.3010 名子 </s> -0.3010
-0.3010 后照镜 </s> -0.3010
-0.3010 君子 </s> -0.3010
-0.3010 君子一言驷马难追 </s> -0.3010
-0.3010 君子不计小人过 </s> -0.3010
-0.3010 君子之交淡如水 </s> -0.3010
-0.3010 君子动口不动手 </s> -0.3010
-0.3010 君子坦荡荡小人长戚戚 </s> -0.3010
-0.3010 君子报仇十年不晚 </s> -0.3010
-0.3010 吹吹拍拍 </s> -0.3010
-0.3010 吹拍 </s> -0.3010
-0.3010 吹牛拍马 </s> -0.3010
-0.3010 吹胡子瞪眼 </s> -0.3010
-0.3010 呆子 </s> -0.3010
-0.3010 命根子 </s> -0.3010
-0.3010 哀子 </s> -0.3010
-0.3010 哈喇子 </s> -0.3010
-0.3010 哭鼻子 </s> -0.3010
-0.3010 嗓子 </s> -0.3010
-0.3010 嗣子 </s> -0.3010
-0.3010 嘴巴子 </s> -0.3010
-0.3010 嘴皮子 </s> -0.3010
-0.3010 回光返照 </s> -0.3010
-0.3010 因子 </s> -0.3010
-0.3010 园子 </s> -0.3010
-0.3010 国拍 </s> -0.3010
-0.3010 圈子 </s> -0.3010
-0.3010 土包子 </s> -0.3010
-0.3010 圣子 </s> -0.3010
-0.3010 圣德太子 </s> -0.3010
-0.3010 地照 </s> -0.3010
-0.3010 场子 </s> -0.3010
-0.3010 均日照 </s> -0.3010
-0.3010 坏肠子 </s> -0.3010
-0.3010 坐月子 </s> -0.3010
-0.3010 坛子 </s> -0.3010
-0.3010 垫子 </s> -0.3010
-0.3010 墨子 </s> -0.3010
-0.3010 士子 </s> -0.3010
-0.3010 壮起胆子 </s> -0.3010
-0.3010 处子秀 </s> -0.3010
-0.3010 夕照 </s> -0.3010
-0.3010 外照射 </s> -0.3010
-0.3010 多子多福 </s> -0.3010
-0.3010 夜猫子 </s> -0.3010
-0.3010 大伯子 </s> -0.3010
-0.3010 大头照 </s> -0.3010
-0.3010 大姨子 </s> -0.3010
-0.3010 大男子主义 </s> -0.3010
-0.3010 大肚子 </s> -0.3010
-0.3010 大舅子 </s> -0.3010
-0.3010 天子 </s> -0.3010
-0.3010 天然照亮 </s> -0.3010
-0.3010 太子 </s> -0.3010
-0.3010 夫子 </s> -0.3010
-0.3010 失面子 </s> -0.3010
-0.3010 头发胡子一把抓 </s> -0.3010
-0.3010 夹子 </s> -0.3010
-0.3010 奉子成婚 </s> -0.3010
-0.3010 女子 </s> -0.3010
-0.3010 女子无才便是德 </s> -0.3010
-0.3010 女孩子 </s> -0.3010
-0.3010 女汉子 </s> -0.3010
-0.3010 奶子 </s> -0.3010
-0.3010 妃子 </s> -0.3010
-0.3010 妃子笑 </s> -0.3010
-0.3010 妹子 </s> -0.3010
-0.3010 妻子 </s> -0.3010
-0.3010 妻离子散 </s> -0.3010
-0.3010 姑子 </s> -0.3010
-0.3010 姜子牙 </s> -0.3010
-0.3010 娃子 </s> -0.3010
-0.3010 娄子 </s> -0.3010
-0.3010 娘子 </s> -0.3010
-0.3010 婆子 </s> -0.3010
-0.3010 婊子 </s> -0.3010
-0.3010 婚照 </s> -0.3010
-0.3010 婶子 </s> -0.3010
-0.3010 嫂子 </s> -0.3010
-0.3010 嫡子 </s> -0.3010
-0.3010 子 </s> -0.3010
-0.3010 子不嫌母丑狗不嫌家贫 </s> -0.3010
-0.3010 子丑 </s> -0.3010
-0.3010 子之 </s> -0.3010
-0.3010 子产 </s> -0.3010
-0.3010 子京 </s> -0.3010
-0.3010 子亮 </s> -0.3010
-0.3010 子仁 </s> -0.3010
-0.3010 子代 </s> -0.3010
-0.3010 子保 </s> -0.3010
-0.3010 子儿 </s> -0.3010
-0.3010 子公司 </s> -0.3010
-0.3010 子刚 </s> -0.3010
-0.3010 子化 </s> -0.3010
-0.3010 子午线 </s> -0.3010
-0.3010 子南 </s> -0.3010
-0.3010 子双 </s> -0.3010
-0.3010 子句 </s> -0.3010
-0.3010 子叶 </s> -0.3010
-0.3010 子嗣 </s> -0.3010
-0.3010 子坚 </s> -0.3010
-0.3010 子域 </s> -0.3010
-0.3010 子夜 </s> -0.3010
-0.3010 子头 </s> -0.3010
-0.3010 子女 </s> -0.3010
-0.3010 子如 </s> -0.3010
-0.3010 子子孙孙 </s> -0.3010
-0.3010 子孙 </s> -0.3010
-0.3010 子孝父慈 </s> -0.3010
-0.3010 子学 </s> -0.3010
-0.3010 子实 </s> -0.3010
-0.3010 子宫 </s> -0.3010
-0.3010 子层 </s> -0.3010
-0.3010 子崖 </s> -0.3010
-0.3010 子帅 </s> -0.3010
-0.3010 子帆 </s> -0.3010
-0.3010 子干 </s> -0.3010
-0.3010 子建 </s> -0.3010
-0.3010 子弟 </s> -0.3010
-0.3010 子弟兵 </s> -0.3010
-0.3010 子弹 </s> -0.3010
-0.3010 子强 </s> -0.3010
-0.3010 子心 </s> -0.3010
-0.3010 子怡 </s> -0.3010
-0.3010 子房 </s> -0.3010
-0.3010 子才 </s> -0.3010
-0.3010 子扬 </s> -0.3010
-0.3010 子日 </s> -0.3010
-0.3010 子时 </s> -0.3010
-0.3010 子昂 </s> -0.3010
-0.3010 子晨 </s> -0.3010
-0.3010 子晴 </s> -0.3010
-0.3010 子曰 </s> -0.3010
-0.3010 子本 </s> -0.3010
-0.3010 子树 </s> -0.3010
-0.3010 子模型 </s> -0.3010
-0.3010 子歌 </s> -0.3010
-0.3010 子正 </s> -0.3010
-0.3010 子民 </s> -0.3010
-0.3010 子河 </s> -0.3010
-0.3010 子洋 </s> -0.3010
-0.3010 子洪 </s> -0.3010
-0.3010 子洲 </s> -0.3010
-0.3010 子涵 </s> -0.3010
-0.3010 子淇 </s> -0.3010
-0.3010 子游 </s> -0.3010
-0.3010 子瀚 </s> -0.3010
-0.3010 子爱 </s> -0.3010
-0.3010 子爵 </s> -0.3010
-0.3010 子猪 </s> -0.3010
-0.3010 子玉 </s> -0.3010
-0.3010 子珊 </s> -0.3010
-0.3010 子球 </s> -0.3010
-0.3010 子癫前症 </s> -0.3010
-0.3010 子目 </s> -0.3010
-0.3010 子目录 </s> -0.3010
-0.3010 子真 </s> -0.3010
-0.3010 子科 </s> -0.3010
-0.3010 子程序 </s> -0.3010
-0.3010 子空间 </s> -0.3010
-0.3010 子章 </s> -0.3010
-0.3010 子粒 </s> -0.3010
-0.3010 子精 </s> -0.3010
-0.3010 子系统 </s> -0.3010
-0.3010 子细 </s> -0.3010
-0.3010 子细胞 </s> -0.3010
-0.3010 子美 </s> -0.3010
-0.3010 子群 </s> -0.3010
-0.3010 子能 </s> -0.3010
-0.3010 子范 </s> -0.3010
-0.3010 子菜 </s> -0.3010
-0.3010 子萌 </s> -0.3010
-0.3010 子虚 </s> -0.3010
-0.3010 子行 </s> -0.3010
-0.3010 子规 </s> -0.3010
-0.3010 子豪 </s> -0.3010
-0.3010 子贡 </s> -0.3010
-0.3010 子路 </s> -0.3010
-0.3010 子进 </s> -0.3010
-0.3010 子里 </s> -0.3010
-0.3010 子鉴 </s> -0.3010
-0.3010 子镇 </s> -0.3010
-0.3010 子集 </s> -0.3010
-0.3010 子集合 </s> -0.3010
-0.3010 子音 </s> -0.3010
-0.3010 子飞 </s> -0.3010
-0.3010 子鼠 </s> -0.3010
-0.3010 孔夫子 </s> -0.3010
-0.3010 孔子 </s> -0.3010
-0.3010 字纸篓子 </s> -0.3010
-0.3010 孙子 </s> -0.3010
-0.3010 孙子兵法 </s> -0.3010
-0.3010 孝子 </s> -0.3010
-0.3010 孟子 </s> -0.3010
-0.3010 孢子 </s> -0.3010
-0.3010 季子 </s> -0.3010
-0.3010 孤哀子 </s> -0.3010
-0.3010 孤子 </s> -0.3010
-0.3010 孤立子 </s> -0.3010
-0.3010 学子 </s> -0.3010
-0.3010 孩子 </s> -0.3010
-0.3010 孩子们 </s> -0.3010
-0.3010 孩子气 </s> -0.3010
-0.3010 孽子 </s> -0.3010
-0.3010 宅子 </s> -0.3010
-0.3010 官子 </s> -0.3010
-0.3010 官架子 </s> -0.3010
-0.3010 定子 </s> -0.3010
-0.3010 定调子 </s> -0.3010
-0.3010 实拍 </s> -0.3010
-0.3010 家子 </s> -0.3010
-0.3010 寄子 </s> -0.3010
-0.3010 密码子 </s> -0.3010
-0.3010 寨子 </s> -0.3010
-0.3010 对照 </s> -0.3010
-0.3010 对照实验 </s> -0.3010
-0.3010 对照表 </s> -0.3010
-0.3010 小伙子 </s> -0.3010
-0.3010 小册子 </s> -0.3010
-0.3010 小姑子 </s> -0.3010
-0.3010 小姨子 </s> -0.3010
-0.3010 小子 </s> -0.3010
-0.3010 小孩子 </s> -0.3010
-0.3010 小家子气 </s> -0.3010
-0.3010 小房子 </s> -0.3010
-0.3010 小日子 </s> -0.3010
-0.3010 小段子 </s> -0.3010
-0.3010 小碟子 </s> -0.3010
-0.3010 小胖子 </s> -0.3010
-0.3010 小舅子 </s> -0.3010
-0.3010 小辫子 </s> -0.3010
-0.3010 小铲子 </s> -0.3010
-0.3010 尖子生 </s> -0.3010
-0.3010 尺子 </s> -0.3010
-0.3010 屋子 </s> -0.3010
-0.3010 屯子 </s> -0.3010
-0.3010 岔子 </s> -0.3010
-0.3010 左嗓子 </s> -0.3010
-0.3010 左撇子 </s> -0.3010
-0.3010 巷子 </s> -0.3010
-0.3010 帐子 </s> -0.3010
-0.3010 帕子 </s> -0.3010
-0.3010 帖子 </s> -0.3010
-0.3010 帘子 </s> -0.3010
-0.3010 带子 </s> -0.3010
-0.3010 席子 </s> -0.3010
-0.3010 帮子 </s> -0.3010
-0.3010 帽子 </s> -0.3010
-0.3010 帽子戏法 </s> -0.3010
-0.3010 幌子 </s> -0.3010
-0.3010 幔子 </s> -0.3010
-0.3010 干儿子 </s> -0.3010
-0.3010 年均日照 </s> -0.3010
-0.3010 庄子 </s> -0.3010
-0.3010 应急照射 </s> -0.3010
-0.3010 底子 </s> -0.3010
-0.3010 庶子 </s> -0.3010
-0.3010 开口子 </s> -0.3010
-0.3010 开拍 </s> -0.3010
-0.3010 式子 </s> -0.3010
-0.3010 引子 </s> -0.3010
-0.3010 弟子 </s> -0.3010
-0.3010 弯子 </s> -0.3010
-0.3010 弹子 </s> -0.3010
-0.3010 强子 </s> -0.3010
-0.3010 彬彬君子 </s> -0.3010
-0.3010 影子 </s> -0.3010
-0.3010 心照 </s> -0.3010
-0.3010 心照不宣 </s> -0.3010
-0.3010 快照 </s> -0.3010
-0.3010 急性子 </s> -0.3010
-0.3010 急性照射 </s> -0.3010
-0.3010 急拍拍 </s> -0.3010
-0.3010 恐怖份子 </s> -0.3010
-0.3010 慈照寺 </s> -0.3010
-0.3010 慢性子 </s> -0.3010
-0.3010 戏子 </s> -0.3010
-0.3010 成样子 </s> -0.3010
-0.3010 房子 </s> -0.3010
-0.3010 扇子 </s> -0.3010
-0.3010 才子 </s> -0.3010
-0.3010 才子佳人 </s> -0.3010
-0.3010 打开话匣子 </s> -0.3010
-0.3010 打拍 </s> -0.3010
-0.3010 打拍子 </s> -0.3010
-0.3010 打肿脸充胖子 </s> -0.3010
-0.3010 扛把子 </s> -0.3010
-0.3010 扣子 </s> -0.3010
-0.3010 执照 </s> -0.3010
-0.3010 扯嗓子 </s> -0.3010
-0.3010 扯犊子 </s> -0.3010
-0.3010 扳子 </s> -0.3010
-0.3010 承蒙关照 </s> -0.3010
-0.3010 抄靶子 </s> -0.3010
-0.3010 抓小辫子 </s> -0.3010
-0.3010 抓拍 </s> -0.3010
-0.3010 投拍 </s> -0.3010
-0.3010 护照 </s> -0.3010
-0.3010 护犊子 </s> -0.3010
-0.3010 抬轿子 </s> -0.3010
-0.3010 抹一鼻子灰 </s> -0.3010
-0.3010 担子 </s> -0.3010
-0.3010 拉场子 </s> -0.3010
-0.3010 拉肚子 </s> -0.3010
-0.3010 拍 </s> -0.3010
-0.3010 拍出 </s> -0.3010
-0.3010 拍击 </s> -0.3010
-0.3010 拍剧 </s> -0.3010
-0.3010 拍卖 </s> -0.3010
-0.3010 拍卖会 </s> -0.3010
-0.3010 拍卖商 </s> -0.3010
-0.3010 拍发 </s> -0.3010
-0.3010 拍号 </s> -0.3010
-0.3010 拍婆子 </s> -0.3010
-0.3010 拍子 </s> -0.3010
-0.3010 拍岸 </s> -0.3010
-0.3010 拍戏 </s> -0.3010
-0.3010 拍手 </s> -0.3010
-0.3010 拍打 </s> -0.3010
-0.3010 拍拍 </s> -0.3010
-0.3010 拍拍屁股走人 </s> -0.3010
-0.3010 拍拖 </s> -0.3010
-0.3010 拍摄 </s> -0.3010
-0.3010 拍板 </s> -0.3010
-0.3010 拍案 </s> -0.3010
-0.3010 拍案叫绝 </s> -0.3010
-0.3010 拍案惊奇 </s> -0.3010
-0.3010 拍案而起 </s> -0.3010
-0.3010 拍档 </s> -0.3010
-0.3010 拍演 </s> -0.3010
-0.3010 拍照 </s> -0.3010
-0.3010 拍片 </s> -0.3010
-0.3010 拍电 </s> -0.3010
-0.3010 拍电影 </s> -0.3010
-0.3010 拍立得 </s> -0.3010
-0.3010 拍纸簿 </s> -0.3010
-0.3010 拍胸脯 </s> -0.3010
-0.3010 拍马 </s> -0.3010
-0.3010 拍马屁 </s> -0.3010
-0.3010 拍马者 </s> -0.3010
-0.3010 拐子 </s> -0.3010
-0.3010 拔罐子 </s> -0.3010
-0.3010 拜把子 </s> -0.3010
-0.3010 择日子 </s> -0.3010
-0.3010 按照 </s> -0.3010
-0.3010 按照字面 </s> -0.3010
-0.3010 按照法律 </s> -0.3010
-0.3010 按照计划 </s> -0.3010
-0.3010 捶子 </s> -0.3010
-0.3010 掉链子 </s> -0.3010
-0.3010 掐脖子 </s> -0.3010
-0.3010 探子 </s> -0.3010
-0.3010 探照灯 </s> -0.3010
-0.3010 探身子 </s> -0.3010
-0.3010 接拍 </s> -0.3010
-0.3010 推子 </s> -0.3010
-0.3010 掸子 </s> -0.3010
-0.3010 提子 </s> -0.3010
-0.3010 揪辫子 </s> -0.3010
-0.3010 摊子 </s> -0.3010
-0.3010 摘帽子 </s> -0.3010
-0.3010 撒丫子 </s> -0.3010
-0.3010 放鸽子 </s> -0.3010
-0.3010 故家子弟 </s> -0.3010
-0.3010 敌特分子 </s> -0.3010
-0.3010 教子 </s> -0.3010
-0.3010 数码照相机 </s> -0.3010
-0.3010 斧子 </s> -0.3010
-0.3010 新娘子 </s> -0.3010
-0.3010 新照 </s> -0.3010
-0.3010 无照经营 </s> -0.3010
-0.3010 日照 </s> -0.3010
-0.3010 早生贵子 </s> -0.3010
-0.3010 旱鸭子 </s> -0.3010
-0.3010 星照 </s> -0.3010
-0.3010 映照 </s> -0.3010
-0.3010 普照 </s> -0.3010
-0.3010 曲子 </s> -0.3010
-0.3010 最大公因子 </s> -0.3010
-0.3010 月子 </s> -0.3010
-0.3010 有两下子 </s> -0.3010
-0.3010 有机分子 </s> -0.3010
-0.3010 朗照 </s> -0.3010
-0.3010 望子成龙 </s> -0.3010
-0.3010 木子 </s> -0.3010
-0.3010 李清照 </s> -0.3010
-0.3010 村子 </s> -0.3010
-0.3010 杓子 </s> -0.3010
-0.3010 杠子 </s> -0.3010
-0.3010 条子 </s> -0.3010
-0.3010 杯子 </s> -0.3010
-0.3010 松子 </s> -0.3010
-0.3010 板子 </s> -0.3010
-0.3010 林子聪 </s> -0.3010
-0.3010 枚子 </s> -0.3010
-0.3010 枝子 </s> -0.3010
-0.3010 枣子 </s> -0.3010
-0.3010 枪杆子 </s> -0.3010
-0.3010 架子 </s> -0.3010
-0.3010 枸杞子 </s> -0.3010
-0.3010 柚子 </s> -0.3010
-0.3010 柜子 </s> -0.3010
-0.3010 柱子 </s> -0.3010
-0.3010 柳子戏 </s> -0.3010
-0.3010 柿子 </s> -0.3010
-0.3010 栀子 </s> -0.3010
-0.3010 栀子花 </s> -0.3010
-0.3010 栅子 </s> -0.3010
-0.3010 栗子 </s> -0.3010
-0.3010 样子 </s> -0.3010
-0.3010 核子 </s> -0.3010
-0.3010 格子 </s> -0.3010
-0.3010 栽子 </s> -0.3010
-0.3010 桃子 </s> -0.3010
-0.3010 框子 </s> -0.3010
-0.3010 案子 </s> -0.3010
-0.3010 桌子 </s> -0.3010
-0.3010 桔子 </s> -0.3010
-0.3010 档子 </s> -0.3010
-0.3010 桩子 </s> -0.3010
-0.3010 梁上君子 </s> -0.3010
-0.3010 梁子 </s> -0.3010
-0.3010 梅子 </s> -0.3010
-0.3010 梨园子弟 </s> -0.3010
-0.3010 梨子 </s> -0.3010
-0.3010 梭子 </s> -0.3010
-0.3010 梯子 </s> -0.3010
-0.3010 梳子 </s> -0.3010
-0.3010 棋子 </s> -0.3010
-0.3010 棍子 </s> -0.3010
-0.3010 棒子 </s> -0.3010
-0.3010 棚子 </s> -0.3010
-0.3010 椅子 </s> -0.3010
-0.3010 椰子 </s> -0.3010
-0.3010 模子 </s> -0.3010
-0.3010 樱桃小番茄 </s> -0.3010
-0.3010 樵子 </s> -0.3010
-0.3010 橘子 </s> -0.3010
-0.3010 橙子 </s> -0.3010
-0.3010 橱子 </s> -0.3010
-0.3010 次子 </s> -0.3010
-0.3010 欧米茄 </s> -0.3010
-0.3010 欧米茄表公司 </s> -0.3010
-0.3010 正人君子 </s> -0.3010
-0.3010 正离子 </s> -0.3010
-0.3010 步子 </s> -0.3010
-0.3010 武装分子 </s> -0.3010
-0.3010 歪点子 </s> -0.3010
-0.3010 死要面子 </s> -0.3010
-0.3010 段子 </s> -0.3010
-0.3010 母子 </s> -0.3010
-0.3010 比照 </s> -0.3010
-0.3010 毛孩子 </s> -0.3010
-0.3010 毡子 </s> -0.3010
-0.3010 毯子 </s> -0.3010
-0.3010 求子 </s> -0.3010
-0.3010 汉子 </s> -0.3010
-0.3010 江湖骗子 </s> -0.3010
-0.3010 洋鬼子 </s> -0.3010
-0.3010 洗照片 </s> -0.3010
-0.3010 活跃分子 </s> -0.3010
-0.3010 活靶子 </s> -0.3010
-0.3010 浪子 </s> -0.3010
-0.3010 海外赤子 </s> -0.3010
-0.3010 海瓜子 </s> -0.3010
-0.3010 海蛎子 </s> -0.3010
-0.3010 涮锅子 </s> -0.3010
-0.3010 淑人君子 </s> -0.3010
-0.3010 混日子 </s> -0.3010
-0.3010 游子 </s> -0.3010
-0.3010 溜须拍马 </s> -0.3010
-0.3010 滚犊子 </s> -0.3010
-0.3010 激进分子 </s> -0.3010
-0.3010 炉子 </s> -0.3010
-0.3010 炎黄子孙 </s> -0.3010
-0.3010 炸丸子 </s> -0.3010
-0.3010 炸子鸡 </s> -0.3010
-0.3010 点子 </s> -0.3010
-0.3010 烂摊子 </s> -0.3010
-0.3010 烧茄子 </s> -0.3010
-0.3010 照 </s> -0.3010
-0.3010 照东 </s> -0.3010
-0.3010 照亮 </s> -0.3010
-0.3010 照会 </s> -0.3010
-0.3010 照作不误 </s> -0.3010
-0.3010 照例 </s> -0.3010
-0.3010 照做 </s> -0.3010
-0.3010 照像 </s> -0.3010
-0.3010 照像机 </s> -0.3010
-0.3010 照准 </s> -0.3010
-0.3010 照办 </s> -0.3010
-0.3010 照单全收 </s> -0.3010
-0.3010 照原样 </s> -0.3010
-0.3010 照发 </s> -0.3010
-0.3010 照均 </s> -0.3010
-0.3010 照壁 </s> -0.3010
-0.3010 照妖镜 </s> -0.3010
-0.3010 照射 </s> -0.3010
-0.3010 照常 </s> -0.3010
-0.3010 照庆 </s> -0.3010
-0.3010 照应 </s> -0.3010
-0.3010 照度 </s> -0.3010
-0.3010 照抄 </s> -0.3010
-0.3010 照护 </s> -0.3010
-0.3010 照搬 </s> -0.3010
-0.3010 照料 </s> -0.3010
-0.3010 照旧 </s> -0.3010
-0.3010 照明 </s> -0.3010
-0.3010 照明弹 </s> -0.3010
-0.3010 照明灯 </s> -0.3010
-0.3010 照映 </s> -0.3010
-0.3010 照本宣科 </s> -0.3010
-0.3010 照片 </s> -0.3010
-0.3010 照猫画虎 </s> -0.3010
-0.3010 照理 </s> -0.3010
-0.3010 照登 </s> -0.3010
-0.3010 照直 </s> -0.3010
-0.3010 照相 </s> -0.3010
-0.3010 照相机 </s> -0.3010
-0.3010 照相馆 </s> -0.3010
-0.3010 照看 </s> -0.3010
-0.3010 照眼 </s> -0.3010
-0.3010 照着 </s> -0.3010
-0.3010 照秀 </s> -0.3010
-0.3010 照章 </s> -0.3010
-0.3010 照管 </s> -0.3010
-0.3010 照约定 </s> -0.3010
-0.3010 照耀 </s> -0.3010
-0.3010 照葫芦画瓢 </s> -0.3010
-0.3010 照说 </s> -0.3010
-0.3010 照镜子 </s> -0.3010
-0.3010 照面 </s> -0.3010
-0.3010 照顾 </s> -0.3010
-0.3010 熊孩子 </s> -0.3010
-0.3010 熊瞎子 </s> -0.3010
-0.3010 爪子 </s> -0.3010
-0.3010 爱子 </s> -0.3010
-0.3010 爱民如子 </s> -0.3010
-0.3010 爱面子 </s> -0.3010
-0.3010 父子 </s> -0.3010
-0.3010 父慈子孝 </s> -0.3010
-0.3010 片子 </s> -0.3010
-0.3010 牌子 </s> -0.3010
-0.3010 牙子 </s> -0.3010
-0.3010 牛鼻子 </s> -0.3010
-0.3010 牵着鼻子走 </s> -0.3010
-0.3010 犊子 </s> -0.3010
-0.3010 犯罪分子 </s> -0.3010
-0.3010 犹子 </s> -0.3010
-0.3010 狍子 </s> -0.3010
-0.3010 狗崽子 </s> -0.3010
-0.3010 独生子 </s> -0.3010
-0.3010 狮子 </s> -0.3010
-0.3010 狸子 </s> -0.3010
-0.3010 狼子野心 </s> -0.3010
-0.3010 猛子 </s> -0.3010
-0.3010 猫哭耗子 </s> -0.3010
-0.3010 猴子 </s> -0.3010
-0.3010 猴子偷桃 </s> -0.3010
-0.3010 猴孩子 </s> -0.3010
-0.3010 猸子 </s> -0.3010
-0.3010 王子 </s> -0.3010
-0.3010 玫瑰茄 </s> -0.3010
-0.3010 玻色子 </s> -0.3010
-0.3010 珍珠小番茄 </s> -0.3010
-0.3010 珠子 </s> -0.3010
-0.3010 班子 </s> -0.3010
-0.3010 球拍 </s> -0.3010
-0.3010 瓜子 </s> -0.3010
-0.3010 瓜子脸 </s> -0.3010
-0.3010 瓶子 </s> -0.3010
-0.3010 甜子 </s> -0.3010
-0.3010 甲子 </s> -0.3010
-0.3010 电子 </s> -0.3010
-0.3010 电照明 </s> -0.3010
-0.3010 电蚊拍 </s> -0.3010
-0.3010 男子 </s> -0.3010
-0.3010 男子气概 </s> -0.3010
-0.3010 男子汉 </s> -0.3010
-0.3010 男孩子 </s> -0.3010
-0.3010 番茄 </s> -0.3010
-0.3010 番茄汁 </s> -0.3010
-0.3010 番茄红素 </s> -0.3010
-0.3010 番茄酱 </s> -0.3010
-0.3010 疟子 </s> -0.3010
-0.3010 疯子 </s> -0.3010
-0.3010 疹子 </s> -0.3010
-0.3010 病因子 </s> -0.3010
-0.3010 病秧子 </s> -0.3010
-0.3010 痞子 </s> -0.3010
-0.3010 瘤子 </s> -0.3010
-0.3010 瘦子 </s> -0.3010
-0.3010 瘫子 </s> -0.3010
-0.3010 瘸子 </s> -0.3010
-0.3010 瘾君子 </s> -0.3010
-0.3010 登徒子 </s> -0.3010
-0.3010 白苋紫茄 </s> -0.3010
-0.3010 白马王子 </s> -0.3010
-0.3010 白鼻子 </s> -0.3010
-0.3010 百合子 </s> -0.3010
-0.3010 皇太子 </s> -0.3010
-0.3010 皮子 </s> -0.3010
-0.3010 盆子 </s> -0.3010
-0.3010 盒子 </s> -0.3010
-0.3010 盖子 </s> -0.3010
-0.3010 盘子 </s> -0.3010
-0.3010 盘杠子 </s> -0.3010
-0.3010 相夫教子 </s> -0.3010
-0.3010 看样子 </s> -0.3010
-0.3010 真子集 </s> -0.3010
-0.3010 眸子 </s> -0.3010
-0.3010 眼珠子 </s> -0.3010
-0.3010 眼皮子 </s> -0.3010
-0.3010 瞎子 </s> -0.3010
-0.3010 瞎子摸象 </s> -0.3010
-0.3010 知子莫若父 </s> -0.3010
-0.3010 知识份子 </s> -0.3010
-0.3010 矮子 </s> -0.3010
-0.3010 石子 </s> -0.3010
-0.3010 石狮子 </s> -0.3010
-0.3010 矸子 </s> -0.3010
-0.3010 码子 </s> -0.3010
-0.3010 砂子 </s> -0.3010
-0.3010 砣子 </s> -0.3010
-0.3010 碍面子 </s> -0.3010
-0.3010 碟子 </s> -0.3010
-0.3010 碰一鼻子灰 </s> -0.3010
-0.3010 碰钉子 </s> -0.3010
-0.3010 磨破嘴皮子 </s> -0.3010
-0.3010 票贩子 </s> -0.3010
-0.3010 福星高照 </s> -0.3010
-0.3010 离子 </s> -0.3010
-0.3010 私生子 </s> -0.3010
-0.3010 秃子 </s> -0.3010
-0.3010 种子 </s> -0.3010
-0.3010 秕子 </s> -0.3010
-0.3010 租子 </s> -0.3010
-0.3010 秧子 </s> -0.3010
-0.3010 积极分子 </s> -0.3010
-0.3010 程子 </s> -0.3010
-0.3010 稚子 </s> -0.3010
-0.3010 稻子 </s> -0.3010
-0.3010 稿子 </s> -0.3010
-0.3010 穷棒子 </s> -0.3010
-0.3010 空拍 </s> -0.3010
-0.3010 空拍机 </s> -0.3010
-0.3010 窑子 </s> -0.3010
-0.3010 窝子 </s> -0.3010
-0.3010 立体照片 </s> -0.3010
-0.3010 竞拍 </s> -0.3010
-0.3010 童子尿 </s> -0.3010
-0.3010 端子 </s> -0.3010
-0.3010 端架子 </s> -0.3010
-0.3010 竹子 </s> -0.3010
-0.3010 竿子 </s> -0.3010
-0.3010 笆篱子 </s> -0.3010
-0.3010 笔杆子 </s> -0.3010
-0.3010 笛子 </s> -0.3010
-0.3010 笼子 </s> -0.3010
-0.3010 等离子 </s> -0.3010
-0.3010 筏子 </s> -0.3010
-0.3010 筒子 </s> -0.3010
-0.3010 筛子 </s> -0.3010
-0.3010 筷子 </s> -0.3010
-0.3010 筹子 </s> -0.3010
-0.3010 筹拍 </s> -0.3010
-0.3010 箍子 </s> -0.3010
-0.3010 箕子 </s> -0.3010
-0.3010 算子 </s> -0.3010
-0.3010 管子 </s> -0.3010
-0.3010 箱子 </s> -0.3010
-0.3010 篦子 </s> -0.3010
-0.3010 篮子 </s> -0.3010
-0.3010 簿子 </s> -0.3010
-0.3010 粒子 </s> -0.3010
-0.3010 粽子 </s> -0.3010
-0.3010 精子 </s> -0.3010
-0.3010 组照 </s> -0.3010
-0.3010 美照 </s> -0.3010
-0.3010 翻拍 </s> -0.3010
-0.3010 老照 </s> -0.3010
-0.3010 肚照 </s> -0.3010
-0.3010 肝胆相照 </s> -0.3010
-0.3010 胡笳十八拍 </s> -0.3010
-0.3010 自拍 </s> -0.3010
-0.3010 自拍器 </s> -0.3010
-0.3010 自拍杆 </s> -0.3010
-0.3010 自拍模式 </s> -0.3010
-0.3010 自拍照 </s> -0.3010
-0.3010 自拍神器 </s> -0.3010
-0.3010 航拍 </s> -0.3010
-0.3010 艳照 </s> -0.3010
-0.3010 节拍 </s> -0.3010
-0.3010 节拍器 </s> -0.3010
-0.3010 苍蝇拍 </s> -0.3010
-0.3010 茄 </s> -0.3010
-0.3010 茄克 </s> -0.3010
-0.3010 茄克衫 </s> -0.3010
-0.3010 茄子 </s> -0.3010
-0.3010 茄红素 </s> -0.3010
-0.3010 荷兰式拍卖 </s> -0.3010
-0.3010 蕃茄 </s> -0.3010
-0.3010 裸照 </s> -0.3010
-0.3010 证照 </s> -0.3010
-0.3010 请多关照 </s> -0.3010
-0.3010 起拍 </s> -0.3010
-0.3010 跟拍 </s> -0.3010
-0.3010 车照 </s> -0.3010
-0.3010 辐照 </s> -0.3010
-0.3010 近照 </s> -0.3010
-0.3010 连拍 </s> -0.3010
-0.3010 遗照 </s> -0.3010
-0.3010 遵照 </s> -0.3010
-0.3010 重拍 </s> -0.3010
-0.3010 野颠茄 </s> -0.3010
-0.3010 铁板茄子 </s> -0.3010
-0.3010 雪茄 </s> -0.3010
-0.3010 雪茄头 </s> -0.3010
-0.3010 雪茄烟 </s> -0.3010
-0.3010 靓照 </s> -0.3010
-0.3010 颠茄 </s> -0.3010
-0.3010 驾照 </s> -0.3010
-0.3010 驾驶执照 </s> -0.3010

\3-grams:
-0.3010 <s> 一下子 </s>
-0.3010 <s> 一个巴掌拍不响 </s>
-0.3010 <s> 一子 </s>
-0.3010 <s> 一家子 </s>
-0.3010 <s> 一抿子 </s>
-0.3010 <s> 一拍两散 </s>
-0.3010 <s> 一拍即合 </s>
-0.3010 <s> 一揽子 </s>
-0.3010 <s> 一甲子 </s>
-0.3010 <s> 一肚子 </s>
-0.3010 <s> 一股子 </s>
-0.3010 <s> 一辈子 </s>
-0.3010 <s> 一锤子买卖 </s>
-0.3010 <s> 一阵子 </s>
-0.3010 <s> 一面镜子 </s>
-0.3010 <s> 丁子高 </s>
-0.3010 <s> 七子 </s>
-0.3010 <s> 三子 </s>
-0.3010 <s> 上拍 </s>
-0.3010 <s> 上辈子 </s>
-0.3010 <s> 上馆子 </s>
-0.3010 <s> 下子 </s>
-0.3010 <s> 下辈子 </s>
-0.3010 <s> 下馆子 </s>
-0.3010 <s> 不入虎穴焉得虎子 </s>
-0.3010 <s> 不成样子 </s>
-0.3010 <s> 不法分子 </s>
-0.3010 <s> 不见兔子不撒鹰 </s>
-0.3010 <s> 世子 </s>
-0.3010 <s> 丙子 </s>
-0.3010 <s> 东一榔头西一棒子 </s>
-0.3010 <s> 东坡肘子 </s>
-0.3010 <s> 东洋鬼子 </s>
-0.3010 <s> 丢面子 </s>
-0.3010 <s> 两下子 </s>
-0.3010 <s> 两口子 </s>
-0.3010 <s> 两子 </s>
-0.3010 <s> 两把刷子 </s>
-0.3010 <s> 个子 </s>
-0.3010 <s> 丫头片子 </s>
-0.3010 <s> 中英文对照 </s>
-0.3010 <s> 丸子 </s>
-0.3010 <s> 主子 </s>
-0.3010 <s> 义子 </s>
-0.3010 <s> 乏人照顾 </s>
-0.3010 <s> 乐子 </s>
-0.3010 <s> 乒乓球拍 </s>
-0.3010 <s> 九子 </s>
-0.3010 <s> 书呆子 </s>
-0.3010 <s> 买面子 </s>
-0.3010 <s> 乱臣贼子 </s>
-0.3010 <s> 予以照顾 </s>
-0.3010 <s> 争面子 </s>
-0.3010 <s> 事故照射 </s>
-0.3010 <s> 二子 </s>
-0.3010 <s> 二尕子 </s>
-0.3010 <s> 二愣子 </s>
-0.3010 <s> 二杆子 </s>
-0.3010 <s> 二毛子 </s>
-0.3010 <s> 二流子 </s>
-0.3010 <s> 二鬼子 </s>
-0.3010 <s> 五味子 </s>
-0.3010 <s> 五子棋 </s>
-0.3010 <s> 亚原子 </s>
-0.3010 <s> 京片子 </s>
-0.3010 <s> 亭子 </s>
-0.3010 <s> 亲子 </s>
-0.3010 <s> 亲子鉴定 </s>
-0.3010 <s> 亲生子女 </s>
-0.3010 <s> 人工照亮 </s>
-0.3010 <s> 仁人君子 </s>
-0.3010 <s> 仙子 </s>
-0.3010 <s> 以子之矛攻子之盾 </s>
-0.3010 <s> 以小人之心度君子之腹 </s>
-0.3010 <s> 份子钱 </s>
-0.3010 <s> 仿射子空间 </s>
-0.3010 <s> 仿照 </s>
-0.3010 <s> 伍子胥 </s>
-0.3010 <s> 会子 </s>
-0.3010 <s> 伢子 </s>
-0.3010 <s> 伪君子 </s>
-0.3010 <s> 位子 </s>
-0.3010 <s> 佛子 </s>
-0.3010 <s> 佳人才子 </s>
-0.3010 <s> 侄子 </s>
-0.3010 <s> 侉子 </s>
-0.3010 <s> 例子 </s>
-0.3010 <s> 依照 </s>
-0.3010 <s> 借腹生子 </s>
-0.3010 <s> 假嗓子 </s>
-0.3010 <s> 假小子 </s>
-0.3010 <s> 偷拍 </s>
-0.3010 <s> 偷汉子 </s>
-0.3010 <s> 傻子 </s>
-0.3010 <s> 儿子 </s>
-0.3010 <s> 兆电子伏 </s>
-0.3010 <s> 光子 </s>
-0.3010 <s> 光照 </s>
-0.3010 <s> 光照度 </s>
-0.3010 <s> 光电子 </s>
-0.3010 <s> 光膀子 </s>
-0.3010 <s> 克丝钳子 </s>
-0.3010 <s> 兔子 </s>
-0.3010 <s> 兔子不吃窝边草 </s>
-0.3010 <s> 兔崽子 </s>
-0.3010 <s> 兔羔子 </s>
-0.3010 <s> 兜圈子 </s>
-0.3010 <s> 八旗子弟 </s>
-0.3010 <s> 八辈子 </s>
-0.3010 <s> 公因子 </s>
-0.3010 <s> 公子 </s>
-0.3010 <s> 公子哥儿 </s>
-0.3010 <s> 关照 </s>
-0.3010 <s> 关门弟子 </s>
-0.3010 <s> 养子 </s>
-0.3010 <s> 册子 </s>
-0.3010 <s> 写照 </s>
-0.3010 <s> 凡夫俗子 </s>
-0.3010 <s> 凭照 </s>
-0.3010 <s> 凯子 </s>
-0.3010 <s> 凳子 </s>
-0.3010 <s> 出乱子 </s>
-0.3010 <s> 出份子 </s>
-0.3010 <s> 分子 </s>
-0.3010 <s> 划子 </s>
-0.3010 <s> 列子 </s>
-0.3010 <s> 刘涓子 </s>
-0.3010 <s> 创牌子 </s>
-0.3010 <s> 刨子 </s>
-0.3010 <s> 别子 </s>
-0.3010 <s> 刮胡子 </s>
-0.3010 <s> 刷子 </s>
-0.3010 <s> 刽子手 </s>
-0.3010 <s> 剂子 </s>
-0.3010 <s> 剧照 </s>
-0.3010 <s> 剪子 </s>
-0.3010 <s> 动嘴皮子 </s>
-0.3010 <s> 势子 </s>
-0.3010 <s> 勒脖子 </s>
-0.3010 <s> 勺子 </s>
-0.3010 <s> 包子 </s>
-0.3010 <s> 包饺子 </s>
-0.3010 <s> 化子 </s>
-0.3010 <s> 匣子 </s>
-0.3010 <s> 半吊子 </s>
-0.3010 <s> 半拉子 </s>
-0.3010 <s> 半瓶子醋 </s>
-0.3010 <s> 半辈子 </s>
-0.3010 <s> 单色照片 </s>
-0.3010 <s> 卖关子 </s>
-0.3010 <s> 卖面子 </s>
-0.3010 <s> 卡脖子 </s>
-0.3010 <s> 卵子 </s>
-0.3010 <s> 卷子 </s>
-0.3010 <s> 厂子 </s>
-0.3010 <s> 原子弹 </s>
-0.3010 <s> 厨子 </s>
-0.3010 <s> 参照 </s>
-0.3010 <s> 叉子 </s>
-0.3010 <s> 双子座 </s>
-0.3010 <s> 叔子 </s>
-0.3010 <s> 口子 </s>
-0.3010 <s> 句子 </s>
-0.3010 <s> 叫花子 </s>
-0.3010 <s> 可疑分子 </s>
-0.3010 <s> 右派分子 </s>
-0.3010 <s> 吃熊心豹子胆 </s>
-0.3010 <s> 合拍 </s>
-0.3010 <s> 合照 </s>
-0.3010 <s> 名子 </s>
-0.3010 <s> 后照镜 </s>
-0.3010 <s> 君子 </s>
-0.3010 <s> 君子一言驷马难追 </s>
-0.3010 <s> 君子不计小人过 </s>
-0.3010 <s> 君子之交淡如水 </s>
-0.3010 <s> 君子动口不动手 </s>
-0.3010 <s> 君子坦荡荡小人长戚戚 </s>
-0.3010 <s> 君子报仇十年不晚 </s>
-0.3010 <s> 吹吹拍拍 </s>
-0.3010 <s> 吹拍 </s>
-0.3010 <s> 吹牛拍马 </s>
-0.3010 <s> 吹胡子瞪眼 </s>
-0.3010 <s> 呆子 </s>
-0.3010 <s> 命根子 </s>
-0.3010 <s> 哀子 </s>
-0.3010 <s> 哈喇子 </s>
-0.3010 <s> 哭鼻子 </s>
-0.3010 <s> 嗓子 </s>
-0.3010 <s> 嗣子 </s>
-0.3010 <s> 嘴巴子 </s>
-0.3010 <s> 嘴皮子 </s>
-0.3010 <s> 回光返照 </s>
-0.3010 <s> 因子 </s>
-0.3010 <s> 园子 </s>
-0.3010 <s> 国拍 </s>
-0.3010 <s> 圈子 </s>
-0.3010 <s> 土包子 </s>
-0.3010 <s> 圣子 </s>
-0.3010 <s> 圣德太子 </s>
-0.3010 <s> 地照 </s>
-0.3010 <s> 场子 </s>
-0.3010 <s> 均日照 </s>
-0.3010 <s> 坏肠子 </s>
-0.3010 <s> 坐月子 </s>
-0.3010 <s> 坛子 </s>
-0.3010 <s> 垫子 </s>
-0.3010 <s> 墨子 </s>
-0.3010 <s> 士子 </s>
-0.3010 <s> 壮起胆子 </s>
-0.3010 <s> 处子秀 </s>
-0.3010 <s> 夕照 </s>
-0.3010 <s> 外照射 </s>
-0.3010 <s> 多子多福 </s>
-0.3010 <s> 夜猫子 </s>
-0.3010 <s> 大伯子 </s>
-0.3010 <s> 大头照 </s>
-0.3010 <s> 大姨子 </s>
-0.3010 <s> 大男子主义 </s>
-0.3010 <s> 大肚子 </s>
-0.3010 <s> 大舅子 </s>
-0.3010 <s> 天子 </s>
-0.3010 <s> 天然照亮 </s>
-0.3010 <s> 太子 </s>
-0.3010 <s> 夫子 </s>
-0.3010 <s> 失面子 </s>
-0.3010 <s> 头发胡子一把抓 </s>
-0.3010 <s> 夹子 </s>
-0.3010 <s> 奉子成婚 </s>
-0.3010 <s> 女子 </s>
-0.3010 <s> 女子无才便是德 </s>
-0.3010 <s> 女孩子 </s>
-0.3010 <s> 女汉子 </s>
-0.3010 <s> 奶子 </s>
-0.3010 <s> 妃子 </s>
-0.3010 <s> 妃子笑 </s>
-0.3010 <s> 妹子 </s>
-0.3010 <s> 妻子 </s>
-0.3010 <s> 妻离子散 </s>
-0.3010 <s> 姑子 </s>
-0.3010 <s> 姜子牙 </s>
-0.3010 <s> 娃子 </s>
-0.3010 <s> 娄子 </s>
-0.3010 <s> 娘子 </s>
-0.3010 <s> 婆子 </s>
-0.3010 <s> 婊子 </s>
-0.3010 <s> 婚照 </s>
-0.3010 <s> 婶子 </s>
-0.3010 <s> 嫂子 </s>
-0.3010 <s> 嫡子 </s>
-0.3010 <s> 子 </s>
-0.3010 <s> 子不嫌母丑狗不嫌家贫 </s>
-0.3010 <s> 子丑 </s>
-0.3010 <s> 子之 </s>
-0.3010 <s> 子产 </s>
-0.3010 <s> 子京 </s>
-0.3010 <s> 子亮 </s>
-0.3010 <s> 子仁 </s>
-0.3010 <s> 子代 </s>
-0.3010 <s> 子保 </s>
-0.3010 <s> 子儿 </s>
-0.3010 <s> 子公司 </s>
-0.3010 <s> 子刚 </s>
-0.3010 <s> 子化 </s>
-0.3010 <s> 子午线 </s>
-0.3010 <s> 子南 </s>
-0.3010 <s> 子双 </s>
-0.3010 <s> 子句 </s>
-0.3010 <s> 子叶 </s>
-0.3010 <s> 子嗣 </s>
-0.3010 <s> 子坚 </s>
-0.3010 <s> 子域 </s>
-0.3010 <s> 子夜 </s>
-0.3010 <s> 子头 </s>
-0.3010 <s> 子女 </s>
-0.3010 <s> 子如 </s>
-0.3010 <s> 子子孙孙 </s>
-0.3010 <s> 子孙 </s>
-0.3010 <s> 子孝父慈 </s>
-0.3010 <s> 子学 </s>
-0.3010 <s> 子实 </s>
-0.3010 <s> 子宫 </s>
-0.3010 <s> 子层 </s>
-0.3010 <s> 子崖 </s>
-0.3010 <s> 子帅 </s>
-0.3010 <s> 子帆 </s>
-0.3010 <s> 子干 </s>
-0.3010 <s> 子建 </s>
-0.3010 <s> 子弟 </s>
-0.3010 <s> 子弟兵 </s>
-0.3010 <s> 子弹 </s>
-0.3010 <s> 子强 </s>
-0.3010 <s> 子心 </s>
-0.3010 <s> 子怡 </s>
-0.3010 <s> 子房 </s>
-0.3010 <s> 子才 </s>
-0.3010 <s> 子扬 </s>
-0.3010 <s> 子日 </s>
-0.3010 <s> 子时 </s>
-0.3010 <s> 子昂 </s>
-0.3010 <s> 子晨 </s>
-0.3010 <s> 子晴 </s>
-0.3010 <s> 子曰 </s>
-0.3010 <s> 子本 </s>
-0.3010 <s> 子树 </s>
-0.3010 <s> 子模型 </s>
-0.3010 <s> 子歌 </s>
-0.3010 <s> 子正 </s>
-0.3010 <s> 子民 </s>
-0.3010 <s> 子河 </s>
-0.3010 <s> 子洋 </s>
-0.3010 <s> 子洪 </s>
-0.3010 <s> 子洲 </s>
-0.3010 <s> 子涵 </s>
-0.3010 <s> 子淇 </s>
-0.3010 <s> 子游 </s>
-0.3010 <s> 子瀚 </s>
-0.3010 <s> 子爱 </s>
-0.3010 <s> 子爵 </s>
-0.3010 <s> 子猪 </s>
-0.3010 <s> 子玉 </s>
-0.3010 <s> 子珊 </s>
-0.3010 <s> 子球 </s>
-0.3010 <s> 子癫前症 </s>
-0.3010 <s> 子目 </s>
-0.3010 <s> 子目录 </s>
-0.3010 <s> 子真 </s>
-0.3010 <s> 子科 </s>
-0.3010 <s> 子程序 </s>
-0.3010 <s> 子空间 </s>
-0.3010 <s> 子章 </s>
-0.3010 <s> 子粒 </s>
-0.3010 <s> 子精 </s>
-0.3010 <s> 子系统 </s>
-0.3010 <s> 子细 </s>
-0.3010 <s> 子细胞 </s>
-0.3010 <s> 子美 </s>
-0.3010 <s> 子群 </s>
-0.3010 <s> 子能 </s>
-0.3010 <s> 子范 </s>
-0.3010 <s> 子菜 </s>
-0.3010 <s> 子萌 </s>
-0.3010 <s> 子虚 </s>
-0.3010 <s> 子行 </s>
-0.3010 <s> 子规 </s>
-0.3010 <s> 子豪 </s>
-0.3010 <s> 子贡 </s>
-0.3010 <s> 子路 </s>
-0.3010 <s> 子进 </s>
-0.3010 <s> 子里 </s>
-0.3010 <s> 子鉴 </s>
-0.3010 <s> 子镇 </s>
-0.3010 <s> 子集 </s>
-0.3010 <s> 子集合 </s>
-0.3010 <s> 子音 </s>
-0.3010 <s> 子飞 </s>
-0.3010 <s> 子鼠 </s>
-0.3010 <s> 孔夫子 </s>
-0.3010 <s> 孔子 </s>
-0.3010 <s> 字纸篓子 </s>
-0.3010 <s> 孙子 </s>
-0.3010 <s> 孙子兵法 </s>
-0.3010 <s> 孝子 </s>
-0.3010 <s> 孟子 </s>
-0.3010 <s> 孢子 </s>
-0.3010 <s> 季子 </s>
-0.3010 <s> 孤哀子 </s>
-0.3010 <s> 孤子 </s>
-0.3010 <s> 孤立子 </s>
-0.3010 <s> 学子 </s>
-0.3010 <s> 孩子 </s>
-0.3010 <s> 孩子们 </s>
-0.3010 <s> 孩子气 </s>
-0.3010 <s> 孽子 </s>
-0.3010 <s> 宅子 </s>
-0.3010 <s> 官子 </s>
-0.3010 <s> 官架子 </s>
-0.3010 <s> 定子 </s>
-0.3010 <s> 定调子 </s>
-0.3010 <s> 实拍 </s>
-0.3010 <s> 家子 </s>
-0.3010 <s> 寄子 </s>
-0.3010 <s> 密码子 </s>
-0.3010 <s> 寨子 </s>
-0.3010 <s> 对照 </s>
-0.3010 <s> 对照实验 </s>
-0.3010 <s> 对照表 </s>
-0.3010 <s> 小伙子 </s>
-0.3010 <s> 小册子 </s>
-0.3010 <s> 小姑子 </s>
-0.3010 <s> 小姨子 </s>
-0.3010 <s> 小子 </s>
-0.3010 <s> 小孩子 </s>
-0.3010 <s> 小家子气 </s>
-0.3010 <s> 小房子 </s>
-0.3010 <s> 小日子 </s>
-0.3010 <s> 小段子 </s>
-0.3010 <s> 小碟子 </s>
-0.3010 <s> 小胖子 </s>
-0.3010 <s> 小舅子 </s>
-0.3010 <s> 小辫子 </s>
-0.3010 <s> 小铲子 </s>
-0.3010 <s> 尖子生 </s>
-0.3010 <s> 尺子 </s>
-0.3010 <s> 屋子 </s>
-0.3010 <s> 屯子 </s>
-0.3010 <s> 岔子 </s>
-0.3010 <s> 左嗓子 </s>
-0.3010 <s> 左撇子 </s>
-0.3010 <s> 巷子 </s>
-0.3010 <s> 帐子 </s>
-0.3010 <s> 帕子 </s>
-0.3010 <s> 帖子 </s>
-0.3010 <s> 帘子 </s>
-0.3010 <s> 带子 </s>
-0.3010 <s> 席子 </s>
-0.3010 <s> 帮子 </s>
-0.3010 <s> 帽子 </s>
-0.3010 <s> 帽子戏法 </s>
-0.3010 <s> 幌子 </s>
-0.3010 <s> 幔子 </s>
-0.3010 <s> 干儿子 </s>
-0.3010 <s> 年均日照 </s>
-0.3010 <s> 庄子 </s>
-0.3010 <s> 应急照射 </s>
-0.3010 <s> 底子 </s>
-0.3010 <s> 庶子 </s>
-0.3010 <s> 开口子 </s>
-0.3010 <s> 开拍 </s>
-0.3010 <s> 式子 </s>
-0.3010 <s> 引子 </s>
-0.3010 <s> 弟子 </s>
-0.3010 <s> 弯子 </s>
-0.3010 <s> 弹子 </s>
-0.3010 <s> 强子 </s>
-0.3010 <s> 彬彬君子 </s>
-0.3010 <s> 影子 </s>
-0.3010 <s> 心照 </s>
-0.3010 <s> 心照不宣 </s>
-0.3010 <s> 快照 </s>
-0.3010 <s> 急性子 </s>
-0.3010 <s> 急性照射 </s>
-0.3010 <s> 急拍拍 </s>
-0.3010 <s> 恐怖份子 </s>
-0.3010 <s> 慈照寺 </s>
-0.3010 <s> 慢性子 </s>
-0.3010 <s> 戏子 </s>
-0.3010 <s> 成样子 </s>
-0.3010 <s> 房子 </s>
-0.3010 <s> 扇子 </s>
-0.3010 <s> 才子 </s>
-0.3010 <s> 才子佳人 </s>
-0.3010 <s> 打开话匣子 </s>
-0.3010 <s> 打拍 </s>
-0.3010 <s> 打拍子 </s>
-0.3010 <s> 打肿脸充胖子 </s>
-0.3010 <s> 扛把子 </s>
-0.3010 <s> 扣子 </s>
-0.3010 <s> 执照 </s>
-0.3010 <s> 扯嗓子 </s>
-0.3010 <s> 扯犊子 </s>
-0.3010 <s> 扳子 </s>
-0.3010 <s> 承蒙关照 </s>
-0.3010 <s> 抄靶子 </s>
-0.3010 <s> 抓小辫子 </s>
-0.3010 <s> 抓拍 </s>
-0.3010 <s> 投拍 </s>
-0.3010 <s> 护照 </s>
-0.3010 <s> 护犊子 </s>
-0.3010 <s> 抬轿子 </s>
-0.3010 <s> 抹一鼻子灰 </s>
-0.3010 <s> 担子 </s>
-0.3010 <s> 拉场子 </s>
-0.3010 <s> 拉肚子 </s>
-0.3010 <s> 拍 </s>
-0.3010 <s> 拍出 </s>
-0.3010 <s> 拍击 </s>
-0.3010 <s> 拍剧 </s>
-0.3010 <s> 拍卖 </s>
-0.3010 <s> 拍卖会 </s>
-0.3010 <s> 拍卖商 </s>
-0.3010 <s> 拍发 </s>
-0.3010 <s> 拍号 </s>
-0.3010 <s> 拍婆子 </s>
-0.3010 <s> 拍子 </s>
-0.3010 <s> 拍岸 </s>
-0.3010 <s> 拍戏 </s>
-0.3010 <s> 拍手 </s>
-0.3010 <s> 拍打 </s>
-0.3010 <s> 拍拍 </s>
-0.3010 <s> 拍拍屁股走人 </s>
-0.3010 <s> 拍拖 </s>
-0.3010 <s> 拍摄 </s>
-0.3010 <s> 拍板 </s>
-0.3010 <s> 拍案 </s>
-0.3010 <s> 拍案叫绝 </s>
-0.3010 <s> 拍案惊奇 </s>
-0.3010 <s> 拍案而起 </s>
-0.3010 <s> 拍档 </s>
-0.3010 <s> 拍演 </s>
-0.3010 <s> 拍照 </s>
-0.3010 <s> 拍片 </s>
-0.3010 <s> 拍电 </s>
-0.3010 <s> 拍电影 </s>
-0.3010 <s> 拍立得 </s>
-0.3010 <s> 拍纸簿 </s>
-0.3010 <s> 拍胸脯 </s>
-0.3010 <s> 拍马 </s>
-0.3010 <s> 拍马屁 </s>
-0.3010 <s> 拍马者 </s>
-0.3010 <s> 拐子 </s>
-0.3010 <s> 拔罐子 </s>
-0.3010 <s> 拜把子 </s>
-0.3010 <s> 择日子 </s>
-0.3010 <s> 按照 </s>
-0.3010 <s> 按照字面 </s>
-0.3010 <s> 按照法律 </s>
-0.3010 <s> 按照计划 </s>
-0.3010 <s> 捶子 </s>
-0.3010 <s> 掉链子 </s>
-0.3010 <s> 掐脖子 </s>
-0.3010 <s> 探子 </s>
-0.3010 <s> 探照灯 </s>
-0.3010 <s> 探身子 </s>
-0.3010 <s> 接拍 </s>
-0.3010 <s> 推子 </s>
-0.3010 <s> 掸子 </s>
-0.3010 <s> 提子 </s>
-0.3010 <s> 揪辫子 </s>
-0.3010 <s> 摊子 </s>
-0.3010 <s> 摘帽子 </s>
-0.3010 <s> 撒丫子 </s>
-0.3010 <s> 放鸽子 </s>
-0.3010 <s> 故家子弟 </s>
-0.3010 <s> 敌特分子 </s>
-0.3010 <s> 教子 </s>
-0.3010 <s> 数码照相机 </s>
-0.3010 <s> 斧子 </s>
-0.3010 <s> 新娘子 </s>
-0.3010 <s> 新照 </s>
-0.3010 <s> 无照经营 </s>
-0.3010 <s> 日照 </s>
-0.3010 <s> 早生贵子 </s>
-0.3010 <s> 旱鸭子 </s>
-0.3010 <s> 星照 </s>
-0.3010 <s> 映照 </s>
-0.3010 <s> 普照 </s>
-0.3010 <s> 曲子 </s>
-0.3010 <s> 最大公因子 </s>
-0.3010 <s> 月子 </s>
-0.3010 <s> 有两下子 </s>
-0.3010 <s> 有机分子 </s>
-0.3010 <s> 朗照 </s>
-0.3010 <s> 望子成龙 </s>
-0.3010 <s> 木子 </s>
-0.3010 <s> 李清照 </s>
-0.3010 <s> 村子 </s>
-0.3010 <s> 杓子 </s>
-0.3010 <s> 杠子 </s>
-0.3010 <s> 条子 </s>
-0.3010 <s> 杯子 </s>
-0.3010 <s> 松子 </s>
-0.3010 <s> 板子 </s>
-0.3010 <s> 林子聪 </s>
-0.3010 <s> 枚子 </s>
-0.3010 <s> 枝子 </s>
-0.3010 <s> 枣子 </s>
-0.3010 <s> 枪杆子 </s>
-0.3010 <s> 架子 </s>
-0.3010 <s> 枸杞子 </s>
-0.3010 <s> 柚子 </s>
-0.3010 <s> 柜子 </s>
-0.3010 <s> 柱子 </s>
-0.3010 <s> 柳子戏 </s>
-0.3010 <s> 柿子 </s>
-0.3010 <s> 栀子 </s>
-0.3010 <s> 栀子花 </s>
-0.3010 <s> 栅子 </s>
-0.3010 <s> 栗子 </s>
-0.3010 <s> 样子 </s>
-0.3010 <s> 核子 </s>
-0.3010 <s> 格子 </s>
-0.3010 <s> 栽子 </s>
-0.3010 <s> 桃子 </s>
-0.3010 <s> 框子 </s>
-0.3010 <s> 案子 </s>
-0.3010 <s> 桌子 </s>
-0.3010 <s> 桔子 </s>
-0.3010 <s> 档子 </s>
-0.3010 <s> 桩子 </s>
-0.3010 <s> 梁上君子 </s>
-0.3010 <s> 梁子 </s>
-0.3010 <s> 梅子 </s>
-0.3010 <s> 梨园子弟 </s>
-0.3010 <s> 梨子 </s>
-0.3010 <s> 梭子 </s>
-0.3010 <s> 梯子 </s>
-0.3010 <s> 梳子 </s>
-0.3010 <s> 棋子 </s>
-0.3010 <s> 棍子 </s>
-0.3010 <s> 棒子 </s>
-0.3010 <s> 棚子 </s>
-0.3010 <s> 椅子 </s>
-0.3010 <s> 椰子 </s>
-0.3010 <s> 模子 </s>
-0.3010 <s> 樱桃小番茄 </s>
-0.3010 <s> 樵子 </s>
-0.3010 <s> 橘子 </s>
-0.3010 <s> 橙子 </s>
-0.3010 <s> 橱子 </s>
-0.3010 <s> 次子 </s>
-0.3010 <s> 欧米茄 </s>
-0.3010 <s> 欧米茄表公司 </s>
-0.3010 <s> 正人君子 </s>
-0.3010 <s> 正离子 </s>
-0.3010 <s> 步子 </s>
-0.3010 <s> 武装分子 </s>
-0.3010 <s> 歪点子 </s>
-0.3010 <s> 死要面子 </s>
-0.3010 <s> 段子 </s>
-0.3010 <s> 母子 </s>
-0.3010 <s> 比照 </s>
-0.3010 <s> 毛孩子 </s>
-0.3010 <s> 毡子 </s>
-0.3010 <s> 毯子 </s>
-0.3010 <s> 求子 </s>
-0.3010 <s> 汉子 </s>
-0.3010 <s> 江湖骗子 </s>
-0.3010 <s> 洋鬼子 </s>
-0.3010 <s> 洗照片 </s>
-0.3010 <s> 活跃分子 </s>
-0.3010 <s> 活靶子 </s>
-0.3010 <s> 浪子 </s>
-0.3010 <s> 海外赤子 </s>
-0.3010 <s> 海瓜子 </s>
-0.3010 <s> 海蛎子 </s>
-0.3010 <s> 涮锅子 </s>
-0.3010 <s> 淑人君子 </s>
-0.3010 <s> 混日子 </s>
-0.3010 <s> 游子 </s>
-0.3010 <s> 溜须拍马 </s>
-0.3010 <s> 滚犊子 </s>
-0.3010 <s> 激进分子 </s>
-0.3010 <s> 炉子 </s>
-0.3010 <s> 炎黄子孙 </s>
-0.3010 <s> 炸丸子 </s>
-0.3010 <s> 炸子鸡 </s>
-0.3010 <s> 点子 </s>
-0.3010 <s> 烂摊子 </s>
-0.3010 <s> 烧茄子 </s>
-0.3010 <s> 照 </s>
-0.3010 <s> 照东 </s>
-0.3010 <s> 照亮 </s>
-0.3010 <s> 照会 </s>
-0.3010 <s> 照作不误 </s>
-0.3010 <s> 照例 </s>
-0.3010 <s> 照做 </s>
-0.3010 <s> 照像 </s>
-0.3010 <s> 照像机 </s>
-0.3010 <s> 照准 </s>
-0.3010 <s> 照办 </s>
-0.3010 <s> 照单全收 </s>
-0.3010 <s> 照原样 </s>
-0.3010 <s> 照发 </s>
-0.3010 <s> 照均 </s>
-0.3010 <s> 照壁 </s>
-0.3010 <s> 照妖镜 </s>
-0.3010 <s> 照射 </s>
-0.3010 <s> 照常 </s>
-0.3010 <s> 照庆 </s>
-0.3010 <s> 照应 </s>
-0.3010 <s> 照度 </s>
-0.3010 <s> 照抄 </s>
-0.3010 <s> 照护 </s>
-0.3010 <s> 照搬 </s>
-0.3010 <s> 照料 </s>
-0.3010 <s> 照旧 </s>
-0.3010 <s> 照明 </s>
-0.3010 <s> 照明弹 </s>
-0.3010 <s> 照明灯 </s>
-0.3010 <s> 照映 </s>
-0.3010 <s> 照本宣科 </s>
-0.3010 <s> 照片 </s>
-0.3010 <s> 照猫画虎 </s>
-0.3010 <s> 照理 </s>
-0.3010 <s> 照登 </s>
-0.3010 <s> 照直 </s>
-0.3010 <s> 照相 </s>
-0.3010 <s> 照相机 </s>
-0.3010 <s> 照相馆 </s>
-0.3010 <s> 照看 </s>
-0.3010 <s> 照眼 </s>
-0.3010 <s> 照着 </s>
-0.3010 <s> 照秀 </s>
-0.3010 <s> 照章 </s>
-0.3010 <s> 照管 </s>
-0.3010 <s> 照约定 </s>
-0.3010 <s> 照耀 </s>
-0.3010 <s> 照葫芦画瓢 </s>
-0.3010 <s> 照说 </s>
-0.3010 <s> 照镜子 </s>
-0.3010 <s> 照面 </s>
-0.3010 <s> 照顾 </s>
-0.3010 <s> 熊孩子 </s>
-0.3010 <s> 熊瞎子 </s>
-0.3010 <s> 爪子 </s>
-0.3010 <s> 爱子 </s>
-0.3010 <s> 爱民如子 </s>
-0.3010 <s> 爱面子 </s>
-0.3010 <s> 父子 </s>
-0.3010 <s> 父慈子孝 </s>
-0.3010 <s> 片子 </s>
-0.3010 <s> 牌子 </s>
-0.3010 <s> 牙子 </s>
-0.3010 <s> 牛鼻子 </s>
-0.3010 <s> 牵着鼻子走 </s>
-0.3010 <s> 犊子 </s>
-0.3010 <s> 犯罪分子 </s>
-0.3010 <s> 犹子 </s>
-0.3010 <s> 狍子 </s>
-0.3010 <s> 狗崽子 </s>
-0.3010 <s> 独生子 </s>
-0.3010 <s> 狮子 </s>
-0.3010 <s> 狸子 </s>
-0.3010 <s> 狼子野心 </s>
-0.3010 <s> 猛子 </s>
-0.3010 <s> 猫哭耗子 </s>
-0.3010 <s> 猴子 </s>
-0.3010 <s> 猴子偷桃 </s>
-0.3010 <s> 猴孩子 </s>
-0.3010 <s> 猸子 </s>
-0.3010 <s> 王子 </s>
-0.3010 <s> 玫瑰茄 </s>
-0.3010 <s> 玻色子 </s>
-0.3010 <s> 珍珠小番茄 </s>
-0.3010 <s> 珠子 </s>
-0.3010 <s> 班子 </s>
-0.3010 <s> 球拍 </s>
-0.3010 <s> 瓜子 </s>
-0.3010 <s> 瓜子脸 </s>
-0.3010 <s> 瓶子 </s>
-0.3010 <s> 甜子 </s>
-0.3010 <s> 甲子 </s>
-0.3010 <s> 电子 </s>
-0.3010 <s> 电照明 </s>
-0.3010 <s> 电蚊拍 </s>
-0.3010 <s> 男子 </s>
-0.3010 <s> 男子气概 </s>
-0.3010 <s> 男子汉 </s>
-0.3010 <s> 男孩子 </s>
-0.3010 <s> 番茄 </s>
-0.3010 <s> 番茄汁 </s>
-0.3010 <s> 番茄红素 </s>
-0.3010 <s> 番茄酱 </s>
-0.3010 <s> 疟子 </s>
-0.3010 <s> 疯子 </s>
-0.3010 <s> 疹子 </s>
-0.3010 <s> 病因子 </s>
-0.3010 <s> 病秧子 </s>
-0.3010 <s> 痞子 </s>
-0.3010 <s> 瘤子 </s>
-0.3010 <s> 瘦子 </s>
-0.3010 <s> 瘫子 </s>
-0.3010 <s> 瘸子 </s>
-0.3010 <s> 瘾君子 </s>
-0.3010 <s> 登徒子 </s>
-0.3010 <s> 白苋紫茄 </s>
-0.3010 <s> 白马王子 </s>
-0.3010 <s> 白鼻子 </s>
-0.3010 <s> 百合子 </s>
-0.3010 <s> 皇太子 </s>
-0.3010 <s> 皮子 </s>
-0.3010 <s> 盆子 </s>
-0.3010 <s> 盒子 </s>
-0.3010 <s> 盖子 </s>
-0.3010 <s> 盘子 </s>
-0.3010 <s> 盘杠子 </s>
-0.3010 <s> 相夫教子 </s>
-0.3010 <s> 看样子 </s>
-0.3010 <s> 真子集 </s>
-0.3010 <s> 眸子 </s>
-0.3010 <s> 眼珠子 </s>
-0.3010 <s> 眼皮子 </s>
-0.3010 <s> 瞎子 </s>
-0.3010 <s> 瞎子摸象 </s>
-0.3010 <s> 知子莫若父 </s>
-0.3010 <s> 知识份子 </s>
-0.3010 <s> 矮子 </s>
-0.3010 <s> 石子 </s>
-0.3010 <s> 石狮子 </s>
-0.3010 <s> 矸子 </s>
-0.3010 <s> 码子 </s>
-0.3010 <s> 砂子 </s>
-0.3010 <s> 砣子 </s>
-0.3010 <s> 碍面子 </s>
-0.3010 <s> 碟子 </s>
-0.3010 <s> 碰一鼻子灰 </s>
-0.3010 <s> 碰钉子 </s>
-0.3010 <s> 磨破嘴皮子 </s>
-0.3010 <s> 票贩子 </s>
-0.3010 <s> 福星高照 </s>
-0.3010 <s> 离子 </s>
-0.3010 <s> 私生子 </s>
-0.3010 <s> 秃子 </s>
-0.3010 <s> 种子 </s>
-0.3010 <s> 秕子 </s>
-0.3010 <s> 租子 </s>
-0.3010 <s> 秧子 </s>
-0.3010 <s> 积极分子 </s>
-0.3010 <s> 程子 </s>
-0.3010 <s> 稚子 </s>
-0.3010 <s> 稻子 </s>
-0.3010 <s> 稿子 </s>
-0.3010 <s> 穷棒子 </s>
-0.3010 <s> 空拍 </s>
-0.3010 <s> 空拍机 </s>
-0.3010 <s> 窑子 </s>
-0.3010 <s> 窝子 </s>
-0.3010 <s> 立体照片 </s>
-0.3010 <s> 竞拍 </s>
-0.3010 <s> 童子尿 </s>
-0.3010 <s> 端子 </s>
-0.3010 <s> 端架子 </s>
-0.3010 <s> 竹子 </s>
-0.3010 <s> 竿子 </s>
-0.3010 <s> 笆篱子 </s>
-0.3010 <s> 笔杆子 </s>
-0.3010 <s> 笛子 </s>
-0.3010 <s> 笼子 </s>
-0.3010 <s> 等离子 </s>
-0.3010 <s> 筏子 </s>
-0.3010 <s> 筒子 </s>
-0.3010 <s> 筛子 </s>
-0.3010 <s> 筷子 </s>
-0.3010 <s> 筹子 </s>
-0.3010 <s> 筹拍 </s>
-0.3010 <s> 箍子 </s>
-0.3010 <s> 箕子 </s>
-0.3010 <s> 算子 </s>
-0.3010 <s> 管子 </s>
-0.3010 <s> 箱子 </s>
-0.3010 <s> 篦子 </s>
-0.3010 <s> 篮子 </s>
-0.3010 <s> 簿子 </s>
-0.3010 <s> 粒子 </s>
-0.3010 <s> 粽子 </s>
-0.3010 <s> 精子 </s>
-0.3010 <s> 组照 </s>
-0.3010 <s> 美照 </s>
-0.3010 <s> 翻拍 </s>
-0.3010 <s> 老照 </s>
-0.3010 <s> 肚照 </s>
-0.3010 <s> 肝胆相照 </s>
-0.3010 <s> 胡笳十八拍 </s>
-0.3010 <s> 自拍 </s>
-0.3010 <s> 自拍器 </s>
-0.3010 <s> 自拍杆 </s>
-0.3010 <s> 自拍模式 </s>
-0.3010 <s> 自拍照 </s>
-0.3010 <s> 自拍神器 </s>
-0.3010 <s> 航拍 </s>
-0.3010 <s> 艳照 </s>
-0.3010 <s> 节拍 </s>
-0.3010 <s> 节拍器 </s>
-0.3010 <s> 苍蝇拍 </s>
-0.3010 <s> 茄 </s>
-0.3010 <s> 茄克 </s>
-0.3010 <s> 茄克衫 </s>
-0.3010 <s> 茄子 </s>
-0.3010 <s> 茄红素 </s>
-0.3010 <s> 荷兰式拍卖 </s>
-0.3010 <s> 蕃茄 </s>
-0.3010 <s> 裸照 </s>
-0.3010 <s> 证照 </s>
-0.3010 <s> 请多关照 </s>
-0.3010 <s> 起拍 </s>
-0.3010 <s> 跟拍 </s>
-0.3010 <s> 车照 </s>
-0.3010 <s> 辐照 </s>
-0.3010 <s> 近照 </s>
-0.3010 <s> 连拍 </s>
-0.3010 <s> 遗照 </s>
-0.3010 <s> 遵照 </s>
-0.3010 <s> 重拍 </s>
-0.3010 <s> 野颠茄 </s>
-0.3010 <s> 铁板茄子 </s>
-0.3010 <s> 雪茄 </s>
-0.3010 <s> 雪茄头 </s>
-0.3010 <s> 雪茄烟 </s>
-0.3010 <s> 靓照 </s>
-0.3010 <s> 颠茄 </s>
-0.3010 <s> 驾照 </s>
-0.3010 <s> 驾驶执照 </s>

\end\
